{"learner":{"attributes":{"scikit_learn":"{\"_estimator_type\": \"classifier\"}"},"feature_names":["Age","Gender","EducationLevel","BMI","Smoking","AlcoholConsumption","PhysicalActivity","DietQuality","SleepQuality","FamilyHistoryAlzheimers","CardiovascularDisease","Diabetes","Depression","HeadInjury","Hypertension","SystolicBP","DiastolicBP","CholesterolTotal","CholesterolLDL","CholesterolHDL","CholesterolTriglycerides","MMSE","FunctionalAssessment","MemoryComplaints","BehavioralProblems","ADL","Confusion","Disorientation","PersonalityChanges","DifficultyCompletingTasks","Forgetfulness"],"feature_types":["float","float","float","float","float","float","float","float","float","float","float","float","float","float","float","float","float","float","float","float","float","float","float","float","float","float","float","float","float","float","float"],"gradient_booster":{"model":{"gbtree_model_param":{"num_parallel_tree":"1","num_trees":"100"},"iteration_indptr":[0,1,2,3,4,5,6,7,8,9,10,11,12,13,14,15,16,17,18,19,20,21,22,23,24,25,26,27,28,29,30,31,32,33,34,35,36,37,38,39,40,41,42,43,44,45,46,47,48,49,50,51,52,53,54,55,56,57,58,59,60,61,62,63,64,65,66,67,68,69,70,71,72,73,74,75,76,77,78,79,80,81,82,83,84,85,86,87,88,89,90,91,92,93,94,95,96,97,98,99,100],"tree_info":[0,0,0,0,0,0,0,0,0,0,0,0,0,0,0,0,0,0,0,0,0,0,0,0,0,0,0,0,0,0,0,0,0,0,0,0,0,0,0,0,0,0,0,0,0,0,0,0,0,0,0,0,0,0,0,0,0,0,0,0,0,0,0,0,0,0,0,0,0,0,0,0,0,0,0,0,0,0,0,0,0,0,0,0,0,0,0,0,0,0,0,0,0,0,0,0,0,0,0,0],"trees":[{"base_weights":[-0E0,8.297521E-1,-9.843137E-1,1.1962264E0,-1.7142857E0,-1.4869109E0,5.0769234E-1,1.8798798E0,4.0201005E-2,-1.8425196E0,-9.677419E-1,-1.7484276E0,-1.8181819E-1,9.5813954E-1,-1.5102041E0,1.8953847E0,1E0,-7.670251E-1,1.8699187E0,-5.609756E-1,-1.5E-1,1.5E-1,-1.2592592E0,-0E0,-1.7594937E0,8.8E-1,-1.4754099E0,1.8139535E0,-3.1111112E-1,-8E-1,-5.2727276E-1,1.9009287E0,1.5E-1,4.2857146E-1,-0E0,-1.7087379E0,1.7922078E0,5.791305E-1,6.666667E-1,-4.9565217E-1,1.5E-1,-1.1428572E0,-1.8068966E0,1.4285715E0,-4.5000002E-1,-1.6363636E0,-0E0,1.5E-1,5.5200005E-1,-1.1515151E0,5.1428574E-1,-3.75E-1,1.5E-1,1.5E-1,5.7196265E-1,-1.20000005E-1,-5.3230774E-1,1.5E-1,5.50685E-1,-0E0,3E-1,-2.6086958E-2,-5.027027E-1,-5.4583335E-1,-0E0,-6.666667E-2,4.758621E-1,-5.234043E-1,-2.0000002E-1,3E-1,-4.0645164E-1],"categories":[],"categories_nodes":[],"categories_segments":[],"categories_sizes":[],"default_left":[0,0,0,0,0,0,0,0,0,0,0,0,0,0,0,0,0,0,0,0,0,0,0,0,0,0,0,0,0,0,0,0,0,0,0,0,0,0,0,0,0,0,0,0,0,0,0,0,0,0,0,0,0,0,0,0,0,0,0,0,0,0,0,0,0,0,0,0,0,0,0],"id":0,"left_children":[1,3,5,7,9,11,13,15,17,19,21,23,25,27,29,31,33,35,37,-1,-1,-1,39,-1,41,43,45,47,49,51,-1,53,-1,-1,-1,55,57,-1,59,-1,-1,61,63,65,-1,67,-1,-1,-1,69,-1,-1,-1,-1,-1,-1,-1,-1,-1,-1,-1,-1,-1,-1,-1,-1,-1,-1,-1,-1,-1],"loss_changes":[4.553305E2,2.8407886E2,1.9197382E2,2.0935947E2,1.9026031E0,6.487109E1,6.0529114E1,3.760376E-1,1.4839537E2,2.3292542E-1,3.9456391E0,3.076355E0,4.6625813E1,5.8949875E1,7.4607277E-1,3.0670166E-1,2.142857E0,1.7116426E2,9.521408E-1,0E0,0E0,0E0,5.491948E0,0E0,2.5533447E0,2.6622856E1,3.62146E0,1.8372345E-1,4.027244E1,3.55E0,0E0,3.1671143E-1,0E0,0E0,0E0,3.7131348E0,1.6197968E-1,0E0,6.666666E-1,0E0,0E0,7.730736E0,3.2875671E0,4.4510117E0,0E0,2.8110886E-1,0E0,0E0,0E0,8.5728245E0,0E0,0E0,0E0,0E0,0E0,0E0,0E0,0E0,0E0,0E0,0E0,0E0,0E0,0E0,0E0,0E0,0E0,0E0,0E0,0E0,0E0],"parents":[2147483647,0,0,1,1,2,2,3,3,4,4,5,5,6,6,7,7,8,8,9,9,10,10,11,11,12,12,13,13,14,14,15,15,16,16,17,17,18,18,22,22,24,24,25,25,26,26,27,27,28,28,29,29,31,31,35,35,36,36,38,38,41,41,42,42,43,43,45,45,49,49],"right_children":[2,4,6,8,10,12,14,16,18,20,22,24,26,28,30,32,34,36,38,-1,-1,-1,40,-1,42,44,46,48,50,52,-1,54,-1,-1,-1,56,58,-1,60,-1,-1,62,64,66,-1,68,-1,-1,-1,70,-1,-1,-1,-1,-1,-1,-1,-1,-1,-1,-1,-1,-1,-1,-1,-1,-1,-1,-1,-1,-1],"split_conditions":[-6.1089855E-2,1.075281E0,-4.951433E-1,5.9079833E-2,-3.74358E-1,-3.9783114E-1,9.777409E-1,1.2937663E-2,-4.951433E-1,1.4427849E0,-1.2781206E0,-1.7264597E0,1.5366568E-1,-1.1949E-4,-2.2149597E-1,1.6750884E0,4.9886778E-1,-3.9783114E-1,1.2330096E0,-5.609756E-1,-1.5E-1,1.5E-1,1.351247E0,-0E0,5.6283765E-2,1.0386814E0,1.4434608E0,-1.5050203E0,-3.9783114E-1,7.4239296E-1,-5.2727276E-1,-1.6793815E0,1.5E-1,4.2857146E-1,-0E0,-1.5020355E0,-1.553488E0,5.791305E-1,-1.178326E0,-4.9565217E-1,1.5E-1,-2.2729088E-1,1.7295429E0,-1.3462114E0,-4.5000002E-1,-3.8401E-1,-0E0,1.5E-1,5.5200005E-1,1.9128792E0,5.1428574E-1,-3.75E-1,1.5E-1,1.5E-1,5.7196265E-1,-1.20000005E-1,-5.3230774E-1,1.5E-1,5.50685E-1,-0E0,3E-1,-2.6086958E-2,-5.027027E-1,-5.4583335E-1,-0E0,-6.666667E-2,4.758621E-1,-5.234043E-1,-2.0000002E-1,3E-1,-4.0645164E-1],"split_indices":[22,21,23,25,10,24,21,25,23,8,6,20,25,25,17,3,7,24,8,0,0,0,7,0,22,21,19,15,24,18,0,7,0,0,0,7,3,0,0,0,0,18,21,17,0,11,0,0,0,23,0,0,0,0,0,0,0,0,0,0,0,0,0,0,0,0,0,0,0,0,0],"split_type":[0,0,0,0,0,0,0,0,0,0,0,0,0,0,0,0,0,0,0,0,0,0,0,0,0,0,0,0,0,0,0,0,0,0,0,0,0,0,0,0,0,0,0,0,0,0,0,0,0,0,0,0,0,0,0,0,0,0,0,0,0,0,0,0,0,0,0,0,0,0,0],"sum_hessian":[5.555E2,3.015E2,2.54E2,2.64E2,3.75E1,1.9E2,6.4E1,1.655E2,9.85E1,3.075E1,6.75E0,1.58E2,3.2E1,5.275E1,1.125E1,1.615E2,4E0,6.875E1,2.975E1,2.975E1,1E0,1E0,5.75E0,1E0,1.57E2,1.775E1,1.425E1,3.125E1,2.15E1,4E0,7.25E0,1.605E2,1E0,2.5E0,1.5E0,5.05E1,1.825E1,2.775E1,2E0,4.75E0,1E0,1.3E1,1.44E2,1.475E1,3E0,1.275E1,1.5E0,1E0,3.025E1,1.55E1,6E0,3E0,1E0,1E0,1.595E2,2.75E0,4.775E1,1E0,1.725E1,1E0,1E0,4.75E0,8.25E0,1.43E2,1E0,1.25E0,1.35E1,1.075E1,2E0,1E0,1.45E1],"tree_param":{"num_deleted":"0","num_feature":"31","num_nodes":"71","size_leaf_vector":"1"}},{"base_weights":[3.5543842E-4,6.2863064E-1,-7.615226E-1,9.1472846E-1,-1.3306291E0,-1.144577E0,3.6734644E-1,1.4555243E0,3.194192E-2,-5.613521E-2,-1.3714311E0,-1.3388901E0,-1.8303391E-1,7.301337E-1,-1.2499647E0,1.2515092E-1,4.382205E-1,-5.891845E-1,1.4627107E0,-1.4595591E0,-8.2589525E-1,-0E0,-1.3481272E0,7.789034E-1,-1.0898091E0,1.3969274E0,-2.3172903E-1,-1.5450224E-1,-4.0333465E-1,-1.3179239E0,1.413258E0,4.5191318E-1,1.7149013E-1,-1.1359695E-1,-4.472343E-1,8.535628E-2,-1.0987023E0,-8.601552E-1,-1.3853024E0,1.2176713E0,-3.4583312E-1,1.7320329E-1,-1.2642921E0,9.426147E-1,4.5232642E-1,-8.887565E-1,4.0696597E-1,-4.3124667E-1,-2.2736071E-1,1.15082584E-1,4.3802384E-1,-3.9487618E-1,-7.2484925E-2,7.2837775E-3,-3.4050298E-1,-2.1702878E-1,-4.219141E-1,4.0074217E-1,6.775642E-3,-4.0640056E-1,-0E0,3.7262747E-1,-1.483129E-1,-3.7307525E-1,-1.1730242E-1],"categories":[],"categories_nodes":[],"categories_segments":[],"categories_sizes":[],"default_left":[0,0,0,0,0,0,0,0,0,0,0,0,0,0,0,0,0,0,0,0,0,0,0,0,0,0,0,0,0,0,0,0,0,0,0,0,0,0,0,0,0,0,0,0,0,0,0,0,0,0,0,0,0,0,0,0,0,0,0,0,0,0,0,0,0],"id":1,"left_children":[1,3,5,7,9,11,13,15,17,-1,19,21,23,25,27,-1,-1,29,31,33,35,-1,37,39,41,43,45,-1,-1,47,49,-1,-1,-1,-1,-1,51,53,55,57,-1,-1,59,61,-1,63,-1,-1,-1,-1,-1,-1,-1,-1,-1,-1,-1,-1,-1,-1,-1,-1,-1,-1,-1],"loss_changes":[2.4878976E2,1.6088814E2,1.01995926E2,1.1889938E2,1.4558334E0,3.2569794E1,3.6275764E1,2.2640991E-1,8.5882904E1,0E0,4.9071503E-1,1.8049927E0,2.7613224E1,3.2301617E1,1.00019455E-1,0E0,0E0,1.0025011E2,2.7693176E-1,4.165573E-1,2.496725E0,0E0,1.4378052E0,1.451736E1,5.445738E0,6.8553925E-2,2.340263E1,0E0,0E0,2.2554016E0,3.3045197E-1,0E0,0E0,0E0,0E0,0E0,7.9955864E-1,3.1631117E0,8.3872986E-1,1.8185692E0,0E0,0E0,1.7126961E0,4.259261E0,0E0,2.2778816E0,0E0,0E0,0E0,0E0,0E0,0E0,0E0,0E0,0E0,0E0,0E0,0E0,0E0,0E0,0E0,0E0,0E0,0E0,0E0],"parents":[2147483647,0,0,1,1,2,2,3,3,4,4,5,5,6,6,7,7,8,8,10,10,11,11,12,12,13,13,14,14,17,17,18,18,19,19,20,20,22,22,23,23,24,24,25,25,26,26,29,29,30,30,36,36,37,37,38,38,39,39,42,42,43,43,45,45],"right_children":[2,4,6,8,10,12,14,16,18,-1,20,22,24,26,28,-1,-1,30,32,34,36,-1,38,40,42,44,46,-1,-1,48,50,-1,-1,-1,-1,-1,52,54,56,58,-1,-1,60,62,-1,64,-1,-1,-1,-1,-1,-1,-1,-1,-1,-1,-1,-1,-1,-1,-1,-1,-1,-1,-1],"split_conditions":[-4.097539E-2,1.075281E0,-4.951433E-1,4.512378E-2,-1.5474627E0,-3.9783114E-1,9.777409E-1,-1.6606171E0,-4.951433E-1,-5.613521E-2,-3.74358E-1,-1.7264597E0,-4.0997583E-2,-1.1949E-4,-1.0941017E0,1.2515092E-1,4.382205E-1,-3.9783114E-1,1.2330096E0,-1.6882797E0,1.2349733E0,-0E0,-1.4753479E0,1.0255104E0,-1.4400707E0,-6.123713E-1,-3.9783114E-1,-1.5450224E-1,-4.0333465E-1,1.1779041E0,-1.5787737E0,4.5191318E-1,1.7149013E-1,-1.1359695E-1,-4.472343E-1,8.535628E-2,-1.5663832E-1,-7.686577E-1,-1.5945954E0,1.1896178E0,-3.4583312E-1,1.7320329E-1,1.4434608E0,8.0247855E-1,4.5232642E-1,-3.0259657E-1,4.0696597E-1,-4.3124667E-1,-2.2736071E-1,1.15082584E-1,4.3802384E-1,-3.9487618E-1,-7.2484925E-2,7.2837775E-3,-3.4050298E-1,-2.1702878E-1,-4.219141E-1,4.0074217E-1,6.775642E-3,-4.0640056E-1,-0E0,3.7262747E-1,-1.483129E-1,-3.7307525E-1,-1.1730242E-1],"split_indices":[22,21,23,25,0,24,21,21,23,0,10,20,25,25,6,0,0,24,8,22,21,0,3,21,8,6,24,0,0,20,22,0,0,0,0,0,20,0,19,5,0,0,19,5,0,2,0,0,0,0,0,0,0,0,0,0,0,0,0,0,0,0,0,0,0],"split_type":[0,0,0,0,0,0,0,0,0,0,0,0,0,0,0,0,0,0,0,0,0,0,0,0,0,0,0,0,0,0,0,0,0,0,0,0,0,0,0,0,0,0,0,0,0,0,0,0,0,0,0,0,0,0,0,0,0,0,0,0,0,0,0,0,0],"sum_hessian":[5.1775305E2,2.838521E2,2.3390094E2,2.4814958E2,3.5702526E1,1.7463042E2,5.9270527E1,1.5347925E2,9.4670334E1,1.4224741E0,3.4280052E1,1.4494652E2,2.9683903E1,4.885922E1,1.0411308E1,1.1710747E0,1.5230818E2,6.642295E1,2.824738E1,2.8070051E1,6.210001E0,1E0,1.4394652E2,1.4472262E1,1.521164E1,2.8588472E1,2.0270746E1,1.9208039E0,8.490504E0,4.8950478E1,1.7472473E1,2.6269545E1,1.9778333E0,1.1565952E0,2.6913456E1,1.2163031E0,4.993698E0,1.1898692E1,1.3204782E2,1.2094672E1,2.3775895E0,1.2224518E0,1.3989188E1,7.4704037E0,2.1118069E1,1.4650626E1,5.620121E0,3.90476E1,9.902878E0,1.159825E0,1.6312649E1,3.5554876E0,1.4382102E0,3.0371943E0,8.861498E0,5.1655116E0,1.2688231E2,1.0899491E1,1.1951811E0,1.2989188E1,1E0,6.294273E0,1.176131E0,7.6784835E0,6.9721427E0],"tree_param":{"num_deleted":"0","num_feature":"31","num_nodes":"65","size_leaf_vector":"1"}},{"base_weights":[-1.0091037E-4,4.9967217E-1,-6.665849E-1,7.36291E-1,-1.0832772E0,-9.750269E-1,2.4837862E-1,1.1865988E0,-2.0459557E-2,-1.1261572E0,-1.807793E-3,-1.1450759E0,-1.6690761E-1,5.627706E-1,-1.0339983E0,1.217805E0,3.2409802E-1,-5.3568685E-1,1.2079717E0,-6.819353E-1,-1.2744395E0,-3.5478657E-1,-1.1666785E0,6.938582E-1,-8.4341437E-1,1.1647588E0,-2.630856E-1,-4.7048506E-1,-3.7014744E-1,1.2744633E0,8.2523406E-1,-1.8873133E-1,7.3979384E-1,-1.0857391E0,1.0863682E0,4.1932383E-1,1.3091834E0,-9.820323E-1,2.6445326E-1,-9.561908E-2,-3.914164E-1,1.4313464E-1,-2.4326539E-1,-1.0169271E0,-1.3286872E0,1.0984432E0,-2.8668422E-1,-1.0235608E0,9.81927E-2,6.693013E-1,3.874462E-1,-7.85365E-1,3.3992186E-1,1.4440812E-1,-2.9357016E-1,2.0264463E-1,3.8654992E-1,2.9192802E-1,-1.3268812E-1,-2.9721925E-2,2.9882675E-1,-3.5534245E-1,-1.0474208E-1,9.7976744E-2,3.7785527E-1,-1.5403137E-1,2.9714212E-1,4.0189448E-1,1.0149093E-1,6.0026076E-2,-3.5688233E-1,2.164223E-1,-1.0462727E-1,-2.0145363E-1,-3.5067216E-1,-1.06860206E-1,-4.0951106E-1,3.7272435E-1,1.2942144E-1,-3.5439846E-1,-6.1209314E-2,-1.2868118E-1,3.4073344E-1,-5.3698927E-2,-3.345798E-1],"categories":[],"categories_nodes":[],"categories_segments":[],"categories_sizes":[],"default_left":[0,0,0,0,0,0,0,0,0,0,0,0,0,0,0,0,0,0,0,0,0,0,0,0,0,0,0,0,0,0,0,0,0,0,0,0,0,0,0,0,0,0,0,0,0,0,0,0,0,0,0,0,0,0,0,0,0,0,0,0,0,0,0,0,0,0,0,0,0,0,0,0,0,0,0,0,0,0,0,0,0,0,0,0,0],"id":2,"left_children":[1,3,5,7,9,11,13,15,17,19,-1,21,23,25,27,29,31,33,35,37,39,41,43,45,47,49,51,53,-1,55,57,-1,59,61,63,65,67,69,71,-1,-1,-1,-1,73,75,77,-1,79,-1,81,-1,83,-1,-1,-1,-1,-1,-1,-1,-1,-1,-1,-1,-1,-1,-1,-1,-1,-1,-1,-1,-1,-1,-1,-1,-1,-1,-1,-1,-1,-1,-1,-1,-1,-1],"loss_changes":[1.5041844E2,9.745841E1,5.4854942E1,7.673306E1,1.5620995E0,1.972519E1,2.0573343E1,3.404251E0,5.4420574E1,1.2821426E0,0E0,1.6273193E0,1.5938461E1,2.0426445E1,5.585594E-1,1.9699402E0,2.958183E0,5.520208E1,1.4794197E0,3.1918583E0,2.5946045E-1,2.13921E0,1.461792E0,9.159006E0,3.5437727E0,6.1691666E-1,1.3926428E1,2.5333652E0,0E0,1.1231995E-1,4.173296E0,0E0,1.1393163E0,2.9113083E0,1.6715565E0,2.8321512E0,1.9899368E-1,2.2135096E0,1.1688437E0,0E0,0E0,0E0,0E0,2.6018066E0,1.367218E0,4.4579983E-1,0E0,1.495122E0,0E0,4.012335E0,0E0,2.5212698E0,0E0,0E0,0E0,0E0,0E0,0E0,0E0,0E0,0E0,0E0,0E0,0E0,0E0,0E0,0E0,0E0,0E0,0E0,0E0,0E0,0E0,0E0,0E0,0E0,0E0,0E0,0E0,0E0,0E0,0E0,0E0,0E0,0E0],"parents":[2147483647,0,0,1,1,2,2,3,3,4,4,5,5,6,6,7,7,8,8,9,9,11,11,12,12,13,13,14,14,15,15,16,16,17,17,18,18,19,19,20,20,21,21,22,22,23,23,24,24,25,25,26,26,27,27,29,29,30,30,32,32,33,33,34,34,35,35,36,36,37,37,38,38,43,43,44,44,45,45,47,47,49,49,51,51],"right_children":[2,4,6,8,10,12,14,16,18,20,-1,22,24,26,28,30,32,34,36,38,40,42,44,46,48,50,52,54,-1,56,58,-1,60,62,64,66,68,70,72,-1,-1,-1,-1,74,76,78,-1,80,-1,82,-1,84,-1,-1,-1,-1,-1,-1,-1,-1,-1,-1,-1,-1,-1,-1,-1,-1,-1,-1,-1,-1,-1,-1,-1,-1,-1,-1,-1,-1,-1,-1,-1,-1,-1],"split_conditions":[3.962466E-2,1.075281E0,-4.951433E-1,1.07538484E-1,-2.0139514E-2,-3.9783114E-1,9.777409E-1,-3.4576748E-2,-4.951433E-1,-7.675104E-1,-1.807793E-3,-1.6842967E0,-1.702009E-1,-1.1949E-4,-8.188386E-1,-1.702009E-1,-1.1044345E0,-3.9783114E-1,-1.0684015E0,-3.74358E-1,-1.5927322E0,-7.637525E-1,9.438692E-1,1.0255104E0,1.3545858E0,-6.123713E-1,-3.9783114E-1,-3.591901E-1,-3.7014744E-1,-1.5474627E0,1.2330096E0,-1.8873133E-1,-4.7068152E-1,1.2905564E0,-1.0819697E0,-9.319314E-3,1.6028334E0,-1.4515969E0,2.80393E-1,-9.561908E-2,-3.914164E-1,1.4313464E-1,-2.4326539E-1,-6.330972E-1,-1.5055035E0,6.8693507E-1,-2.8668422E-1,-4.893044E-1,9.81927E-2,-7.505588E-1,3.874462E-1,6.738726E-1,3.3992186E-1,1.4440812E-1,-2.9357016E-1,2.0264463E-1,3.8654992E-1,2.9192802E-1,-1.3268812E-1,-2.9721925E-2,2.9882675E-1,-3.5534245E-1,-1.0474208E-1,9.7976744E-2,3.7785527E-1,-1.5403137E-1,2.9714212E-1,4.0189448E-1,1.0149093E-1,6.0026076E-2,-3.5688233E-1,2.164223E-1,-1.0462727E-1,-2.0145363E-1,-3.5067216E-1,-1.06860206E-1,-4.0951106E-1,3.7272435E-1,1.2942144E-1,-3.5439846E-1,-6.1209314E-2,-1.2868118E-1,3.4073344E-1,-5.3698927E-2,-3.345798E-1],"split_indices":[22,21,23,25,22,24,21,22,23,17,0,20,25,25,20,25,25,24,0,10,7,25,22,21,20,6,24,8,0,0,8,0,8,19,15,6,0,25,6,0,0,0,0,3,6,15,0,12,0,7,0,25,0,0,0,0,0,0,0,0,0,0,0,0,0,0,0,0,0,0,0,0,0,0,0,0,0,0,0,0,0,0,0,0,0],"split_type":[0,0,0,0,0,0,0,0,0,0,0,0,0,0,0,0,0,0,0,0,0,0,0,0,0,0,0,0,0,0,0,0,0,0,0,0,0,0,0,0,0,0,0,0,0,0,0,0,0,0,0,0,0,0,0,0,0,0,0,0,0,0,0,0,0,0,0,0,0,0,0,0,0,0,0,0,0,0,0,0,0,0,0,0,0],"sum_hessian":[4.4958398E2,2.5706796E2,1.9251602E2,2.2410385E2,3.296412E1,1.4393025E2,4.858576E1,1.4014308E2,8.396078E1,3.1658552E1,1.3055643E0,1.18564316E2,2.536594E1,3.9470245E1,9.115512E0,1.3485204E2,5.291039E0,5.9548805E1,2.441197E1,9.324188E0,2.2334366E1,3.6183214E0,1.14946E2,1.1151488E1,1.4214451E1,2.259199E1,1.6878258E1,3.2643821E0,5.85113E0,1.1588091E2,1.8971123E1,1.4508415E0,3.8401976E0,4.4715908E1,1.4832896E1,3.361555E0,2.1050415E1,7.050752E0,2.2734358E0,1.039904E0,2.129446E1,1.2649782E0,2.3533432E0,6.3514194E1,5.1431805E1,9.223258E0,1.9282304E0,1.242781E1,1.786641E0,5.8810024E0,1.6710985E1,1.2601667E1,4.2765903E0,1.1543695E0,2.1100125E0,3.7781348E0,1.12102776E2,1.7197317E1,1.7738061E0,1.0422624E0,2.797935E0,3.8894375E1,5.821534E0,3.288617E0,1.1544279E1,1.3150133E0,2.0465417E0,2.0041706E1,1.0087095E0,1.0585426E0,5.9922094E0,1.2015889E0,1.071847E0,2.106249E1,4.2451702E1,2.2422612E0,4.9189545E1,6.8764796E0,2.3467789E0,1.0051355E1,2.376455E0,1.7772506E0,4.103752E0,4.983821E0,7.6178465E0],"tree_param":{"num_deleted":"0","num_feature":"31","num_nodes":"85","size_leaf_vector":"1"}},{"base_weights":[4.5958694E-4,4.1428828E-1,-5.9987766E-1,6.186434E-1,-9.468521E-1,-8.546921E-1,1.5621597E-1,1.0228093E0,7.865452E-3,3.3119045E-2,-9.9379146E-1,-9.9424714E-1,-2.2113597E-1,4.438631E-1,-8.9813566E-1,1.0956967E0,2.0469712E-1,-4.1992784E-1,1.0555332E0,-5.625947E-1,-1.1375176E0,-4.8408598E-1,-1.0541717E0,5.1809853E-1,-7.3170704E-1,1.0040737E0,-2.3646834E-1,-7.286694E-2,-1.0209113E0,1.1377292E0,7.3966515E-1,-4.01045E-1,3.1337047E-1,-8.9678705E-1,9.7205997E-1,1.1568329E0,-5.3562835E-2,-8.347096E-1,1.3231772E-1,-8.702648E-2,-1.166926E0,2.2245102E-1,-3.3148274E-1,-1.1244822E0,-5.983048E-1,9.1067404E-1,-2.529314E-1,-9.6050286E-1,2.4657995E-1,4.6676192E-1,3.497767E-1,-6.738488E-1,2.982979E-1,-7.0720345E-2,-3.374756E-1,3.626503E-1,2.642191E-1,2.6460055E-1,-4.7829855E-2,-2.4651766E-1,2.3892263E-1,-7.8357406E-2,-3.0761486E-1,3.1948164E-1,-2.2890033E-2,3.6429936E-1,1.00478224E-1,-3.297287E-1,5.064639E-2,-3.645011E-1,-1.1551579E-1,3.3440724E-1,-1.21438734E-1,-3.5446477E-1,-1.4527492E-1,2.0968278E-1,-2.335296E-1,3.2709402E-1,3.91039E-2,-5.1816218E-2,-3.4752947E-1,-1.6001303E-1,2.803947E-1,-1.4519951E-1,2.8517824E-1,-2.635067E-1,6.6077664E-2],"categories":[],"categories_nodes":[],"categories_segments":[],"categories_sizes":[],"default_left":[0,0,0,0,0,0,0,0,0,0,0,0,0,0,0,0,0,0,0,0,0,0,0,0,0,0,0,0,0,0,0,0,0,0,0,0,0,0,0,0,0,0,0,0,0,0,0,0,0,0,0,0,0,0,0,0,0,0,0,0,0,0,0,0,0,0,0,0,0,0,0,0,0,0,0,0,0,0,0,0,0,0,0,0,0,0,0],"id":3,"left_children":[1,3,5,7,9,11,13,15,17,-1,19,21,23,25,27,29,31,33,35,37,39,41,43,45,47,49,51,-1,53,55,57,59,-1,61,63,65,-1,67,-1,-1,69,71,-1,73,75,77,-1,79,81,83,-1,85,-1,-1,-1,-1,-1,-1,-1,-1,-1,-1,-1,-1,-1,-1,-1,-1,-1,-1,-1,-1,-1,-1,-1,-1,-1,-1,-1,-1,-1,-1,-1,-1,-1,-1,-1],"loss_changes":[9.5205574E1,6.3684383E1,3.0260689E1,4.8829666E1,1.598856E0,1.013459E1,1.2609159E1,6.8746033E0,3.6204075E1,0E0,1.146841E0,2.4148865E0,8.843298E0,1.2548236E1,4.7288465E-1,7.908478E-1,5.999053E0,3.8953835E1,3.13418E0,2.8769827E0,1.7599869E-1,5.4689207E0,2.0445404E0,5.976264E0,3.298571E0,1.0128593E0,8.958083E0,0E0,3.2559776E-1,6.8424225E-1,1.9804068E0,4.228504E0,0E0,3.2674255E0,1.5533867E0,6.22385E-1,0E0,2.1946898E0,0E0,0E0,2.6976013E-1,4.0339365E0,0E0,2.069847E0,3.6905599E0,9.857211E-1,0E0,1.5603724E0,2.3170006E0,3.1338415E0,0E0,2.3795161E0,0E0,0E0,0E0,0E0,0E0,0E0,0E0,0E0,0E0,0E0,0E0,0E0,0E0,0E0,0E0,0E0,0E0,0E0,0E0,0E0,0E0,0E0,0E0,0E0,0E0,0E0,0E0,0E0,0E0,0E0,0E0,0E0,0E0,0E0,0E0],"parents":[2147483647,0,0,1,1,2,2,3,3,4,4,5,5,6,6,7,7,8,8,10,10,11,11,12,12,13,13,14,14,15,15,16,16,17,17,18,18,19,19,20,20,21,21,22,22,23,23,24,24,25,25,26,26,28,28,29,29,30,30,31,31,33,33,34,34,35,35,37,37,40,40,41,41,43,43,44,44,45,45,47,47,48,48,49,49,51,51],"right_children":[2,4,6,8,10,12,14,16,18,-1,20,22,24,26,28,30,32,34,36,38,40,42,44,46,48,50,52,-1,54,56,58,60,-1,62,64,66,-1,68,-1,-1,70,72,-1,74,76,78,-1,80,82,84,-1,86,-1,-1,-1,-1,-1,-1,-1,-1,-1,-1,-1,-1,-1,-1,-1,-1,-1,-1,-1,-1,-1,-1,-1,-1,-1,-1,-1,-1,-1,-1,-1,-1,-1,-1,-1],"split_conditions":[1.2202194E-1,1.075281E0,-4.951433E-1,4.512378E-2,-1.5945954E0,-3.9783114E-1,9.777409E-1,-3.4576748E-2,-4.951433E-1,3.3119045E-2,-7.675104E-1,-1.4201566E0,-1.702009E-1,-1.1949E-4,-8.333827E-1,-1.702009E-1,-4.951433E-1,-3.9783114E-1,-1.2625852E-3,-3.3555847E-1,-1.6297055E0,-2.9256302E-1,1.1724018E0,1.0255104E0,1.4434608E0,-7.505588E-1,-3.9783114E-1,-7.286694E-2,1.0802633E0,7.3188215E-1,1.0288192E0,-3.9783114E-1,3.1337047E-1,-1.0684015E0,-4.097539E-2,1.2330096E0,-5.3562835E-2,-4.951433E-1,1.3231772E-1,-8.702648E-2,1.3556983E0,-7.2317386E-1,-3.3148274E-1,1.4699066E0,-1.5020355E0,6.8693507E-1,-2.529314E-1,-1.012625E0,1.1319965E0,-6.123713E-1,3.497767E-1,1.0100878E0,2.982979E-1,-7.0720345E-2,-3.374756E-1,3.626503E-1,2.642191E-1,2.6460055E-1,-4.7829855E-2,-2.4651766E-1,2.3892263E-1,-7.8357406E-2,-3.0761486E-1,3.1948164E-1,-2.2890033E-2,3.6429936E-1,1.00478224E-1,-3.297287E-1,5.064639E-2,-3.645011E-1,-1.1551579E-1,3.3440724E-1,-1.21438734E-1,-3.5446477E-1,-1.4527492E-1,2.0968278E-1,-2.335296E-1,3.2709402E-1,3.91039E-2,-5.1816218E-2,-3.4752947E-1,-1.6001303E-1,2.803947E-1,-1.4519951E-1,2.8517824E-1,-2.635067E-1,6.6077664E-2],"split_indices":[22,21,23,25,19,24,21,22,23,0,17,20,25,25,0,25,23,24,22,28,7,3,6,21,19,7,24,0,21,18,8,24,0,0,22,8,0,23,0,0,3,21,0,21,7,15,0,18,20,6,0,2,0,0,0,0,0,0,0,0,0,0,0,0,0,0,0,0,0,0,0,0,0,0,0,0,0,0,0,0,0,0,0,0,0,0,0],"split_type":[0,0,0,0,0,0,0,0,0,0,0,0,0,0,0,0,0,0,0,0,0,0,0,0,0,0,0,0,0,0,0,0,0,0,0,0,0,0,0,0,0,0,0,0,0,0,0,0,0,0,0,0,0,0,0,0,0,0,0,0,0,0,0,0,0,0,0,0,0,0,0,0,0,0,0,0,0,0,0,0,0,0,0,0,0,0,0],"sum_hessian":[3.8121814E2,2.2584618E2,1.5537196E2,1.9683919E2,2.9006998E1,1.1611062E2,3.926135E1,1.180489E2,7.879029E1,1.1756265E0,2.7831371E1,9.468484E1,2.1425783E1,3.130089E1,7.960459E0,1.0808047E2,9.968424E0,5.6371387E1,2.2418903E1,8.18617E0,1.9645203E1,1.0907054E1,8.377778E1,8.746846E0,1.2678937E1,1.6904898E1,1.4395993E1,1.7261941E0,6.2342653E0,9.470428E1,1.3376195E1,6.095003E0,3.8734212E0,4.2252514E1,1.4118875E1,2.077608E1,1.6428251E0,6.572527E0,1.6136422E0,1.0232581E0,1.8621944E1,5.401654E0,5.5053997E0,7.1312256E1,1.2465522E1,7.0457945E0,1.7010518E0,1.0290448E1,2.3884892E0,4.8124046E0,1.2092493E1,1.09553585E1,3.440634E0,1.1113007E0,5.1229644E0,7.1279396E1,2.3424877E1,1.1564438E1,1.8117566E0,4.7426305E0,1.3523729E0,7.62019E0,3.463232E1,1.2955294E1,1.1635804E0,1.8971432E1,1.8046464E0,5.1266522E0,1.4458748E0,1.7021334E1,1.6006113E0,1.9090173E0,3.4926367E0,6.469975E1,6.612507E0,1.16867E0,1.1296852E1,5.4043975E0,1.641397E0,2.442322E0,7.848126E0,1.224868E0,1.1636213E0,1.622921E0,3.189484E0,8.93036E0,2.0249996E0],"tree_param":{"num_deleted":"0","num_feature":"31","num_nodes":"87","size_leaf_vector":"1"}},{"base_weights":[1.9654762E-3,3.6807263E-1,-5.1888573E-1,5.533515E-1,-8.3356947E-1,-7.450891E-1,1.3845131E-1,9.342243E-1,2.3980139E-2,-1.0490355E0,-4.4794956E-1,-8.7355036E-1,-1.877151E-1,3.9848235E-1,-7.8297144E-1,1.0049816E0,2.0028843E-1,-3.498807E-1,9.607738E-1,-1.0838406E0,-9.941615E-2,1.4244749E-1,-8.7889546E-1,-5.947738E-1,-1.0269237E0,3.84707E-1,-6.850272E-1,9.060486E-1,-1.8055747E-1,-2.6796E-1,-3.0217135E-1,1.0244328E0,3.2085992E-2,-3.191527E-1,2.8207162E-1,-7.8096986E-1,8.722551E-1,1.0659331E0,-4.3865502E-2,-9.501154E-2,-3.3935153E-1,-1.7793326E-1,8.103131E-1,-4.6021577E-2,-2.9602602E-1,-7.3384106E-1,5.9793985E-1,1.430399E-2,-1.0980705E0,7.117843E-1,-2.3435152E-1,-9.172974E-1,9.249859E-2,1.034528E0,2.5133035E-1,-5.449412E-1,2.692774E-1,1.5042704E-1,-2.3467512E-1,3.156326E-1,1.4675584E-1,-2.0809637E-1,2.137656E-1,-3.0282283E-1,-9.427748E-2,-3.9478913E-2,2.8918502E-1,3.449925E-1,1.0712222E-1,3.2725865E-1,2.6567137E-2,-5.9360553E-2,-2.7920392E-1,3.680267E-1,-8.766688E-2,-2.3184045E-1,2.6181382E-1,-1.1450625E-1,-3.4420115E-1,2.806412E-1,-1.0973777E-2,-3.2690412E-1,-7.8844335E-3,5.899896E-2,3.3082488E-1,-1.5993762E-1,2.2564214E-1,-8.190619E-3,-2.821868E-1],"categories":[],"categories_nodes":[],"categories_segments":[],"categories_sizes":[],"default_left":[0,0,0,0,0,0,0,0,0,0,0,0,0,0,0,0,0,0,0,0,0,0,0,0,0,0,0,0,0,0,0,0,0,0,0,0,0,0,0,0,0,0,0,0,0,0,0,0,0,0,0,0,0,0,0,0,0,0,0,0,0,0,0,0,0,0,0,0,0,0,0,0,0,0,0,0,0,0,0,0,0,0,0,0,0,0,0,0,0],"id":4,"left_children":[1,3,5,7,9,11,13,15,17,19,21,23,25,27,29,31,33,35,37,39,-1,41,43,45,47,49,51,53,55,57,-1,59,-1,61,-1,63,65,67,-1,-1,-1,-1,69,-1,-1,71,73,75,77,79,-1,81,-1,83,85,87,-1,-1,-1,-1,-1,-1,-1,-1,-1,-1,-1,-1,-1,-1,-1,-1,-1,-1,-1,-1,-1,-1,-1,-1,-1,-1,-1,-1,-1,-1,-1,-1,-1],"loss_changes":[6.130905E1,4.2495872E1,1.9836475E1,3.3080223E1,1.658884E0,6.9168167E0,8.6549015E0,4.75589E0,2.4755753E1,3.2770157E-2,2.905949E0,2.8138504E0,5.8991613E0,8.339718E0,6.5421724E-1,1.4068756E0,4.0062556E0,2.7323303E1,2.5021858E0,1.6915894E-1,0E0,3.168785E0,3.539095E-1,5.5479813E0,3.7413979E0,4.3097878E0,2.8099995E0,1.0009813E0,5.9218183E0,1.8917505E0,0E0,7.423477E-1,0E0,2.9716883E0,0E0,3.724598E0,1.3840933E0,6.931381E-1,0E0,0E0,0E0,0E0,5.6970835E-1,0E0,0E0,2.7735786E0,2.4673488E0,3.5147905E0,1.2240143E0,1.4086394E0,0E0,1.3735251E0,0E0,4.8109913E-1,1.8860313E0,2.2186768E0,0E0,0E0,0E0,0E0,0E0,0E0,0E0,0E0,0E0,0E0,0E0,0E0,0E0,0E0,0E0,0E0,0E0,0E0,0E0,0E0,0E0,0E0,0E0,0E0,0E0,0E0,0E0,0E0,0E0,0E0,0E0,0E0,0E0],"parents":[2147483647,0,0,1,1,2,2,3,3,4,4,5,5,6,6,7,7,8,8,9,9,10,10,11,11,12,12,13,13,14,14,15,15,16,16,17,17,18,18,19,19,21,21,22,22,23,23,24,24,25,25,26,26,27,27,28,28,29,29,31,31,33,33,35,35,36,36,37,37,42,42,45,45,46,46,47,47,48,48,49,49,51,51,53,53,54,54,55,55],"right_children":[2,4,6,8,10,12,14,16,18,20,22,24,26,28,30,32,34,36,38,40,-1,42,44,46,48,50,52,54,56,58,-1,60,-1,62,-1,64,66,68,-1,-1,-1,-1,70,-1,-1,72,74,76,78,80,-1,82,-1,84,86,88,-1,-1,-1,-1,-1,-1,-1,-1,-1,-1,-1,-1,-1,-1,-1,-1,-1,-1,-1,-1,-1,-1,-1,-1,-1,-1,-1,-1,-1,-1,-1,-1,-1],"split_conditions":[1.2202194E-1,1.075281E0,-4.951433E-1,1.2937663E-2,3.497559E-1,-3.9783114E-1,9.777409E-1,-3.4576748E-2,-4.951433E-1,1.3734281E0,-4.324976E-1,-5.841563E-1,-4.0997583E-2,-1.1949E-4,-3.591901E-1,1.652722E0,-4.951433E-1,-3.9783114E-1,-1.2625852E-3,-1.5264511E0,-9.941615E-2,-7.976024E-1,-1.0718141E0,1.3627071E0,-1.5020355E0,1.0255104E0,1.4434608E0,9.4139344E-1,-3.9783114E-1,-8.188386E-1,-3.0217135E-1,1.5677572E0,3.2085992E-2,-3.9783114E-1,2.8207162E-1,-4.445313E-1,-1.6079512E0,1.2615744E0,-4.3865502E-2,-9.501154E-2,-3.3935153E-1,-1.7793326E-1,1.4287126E0,-4.6021577E-2,-2.9602602E-1,-7.7992326E-1,-6.954929E-1,-4.6228713E-1,-1.3647606E0,6.8693507E-1,-2.3435152E-1,-3.8401E-1,9.249859E-2,-1.352145E0,-5.1741016E-1,-3.7002707E-1,2.692774E-1,1.5042704E-1,-2.3467512E-1,3.156326E-1,1.4675584E-1,-2.0809637E-1,2.137656E-1,-3.0282283E-1,-9.427748E-2,-3.9478913E-2,2.8918502E-1,3.449925E-1,1.0712222E-1,3.2725865E-1,2.6567137E-2,-5.9360553E-2,-2.7920392E-1,3.680267E-1,-8.766688E-2,-2.3184045E-1,2.6181382E-1,-1.1450625E-1,-3.4420115E-1,2.806412E-1,-1.0973777E-2,-3.2690412E-1,-7.8844335E-3,5.899896E-2,3.3082488E-1,-1.5993762E-1,2.2564214E-1,-8.190619E-3,-2.821868E-1],"split_indices":[22,21,23,25,20,24,21,22,23,7,19,3,25,25,8,6,23,24,22,16,0,22,25,21,7,21,19,5,24,20,0,0,0,24,0,22,3,20,0,0,0,0,21,0,0,17,6,20,21,15,0,11,0,0,6,0,0,0,0,0,0,0,0,0,0,0,0,0,0,0,0,0,0,0,0,0,0,0,0,0,0,0,0,0,0,0,0,0,0],"split_type":[0,0,0,0,0,0,0,0,0,0,0,0,0,0,0,0,0,0,0,0,0,0,0,0,0,0,0,0,0,0,0,0,0,0,0,0,0,0,0,0,0,0,0,0,0,0,0,0,0,0,0,0,0,0,0,0,0,0,0,0,0,0,0,0,0,0,0,0,0,0,0,0,0,0,0,0,0,0,0,0,0,0,0,0,0,0,0,0,0],"sum_hessian":[3.1951453E2,1.8780173E2,1.3171281E2,1.6318071E2,2.4621017E1,9.789247E1,3.3820343E1,9.445635E1,6.872436E1,1.4691638E1,9.9293785E0,7.909559E1,1.8796883E1,2.681931E1,7.0010343E0,8.58139E1,8.642446E0,4.9568714E1,1.9155645E1,1.3525408E1,1.1662304E0,4.472076E0,5.4573026E0,2.9802853E1,4.9292736E1,8.843806E0,9.953076E0,1.3990755E1,1.2828554E1,2.7896454E0,4.211389E0,8.385681E1,1.9570888E0,5.411961E0,3.2304847E0,3.6910202E1,1.2658512E1,1.7527685E1,1.6279616E0,1.2329649E0,1.2292443E1,2.181451E0,2.290625E0,1.0198334E0,4.4374695E0,2.7035334E1,2.7675185E0,3.2038367E0,4.6088898E1,7.21046E0,1.633346E0,8.12891E0,1.8241657E0,1.1210697E1,2.7800572E0,9.957694E0,2.8708599E0,1.1276655E0,1.6619799E0,7.881585E1,5.040961E0,4.211043E0,1.2009182E0,2.4000134E1,1.2910067E1,1.0230691E0,1.1635443E1,1.5113545E1,2.4141393E0,1.281213E0,1.009412E0,7.800515E0,1.9234818E1,1.4002496E0,1.367269E0,1.7233572E0,1.4804796E0,3.5284975E0,4.2560402E1,5.358715E0,1.8517452E0,6.624348E0,1.504562E0,1.1364207E0,1.0074277E1,1.0581199E0,1.7219373E0,4.7771378E0,5.1805563E0],"tree_param":{"num_deleted":"0","num_feature":"31","num_nodes":"89","size_leaf_vector":"1"}},{"base_weights":[9.880282E-4,3.2583988E-1,-4.5162624E-1,4.9500734E-1,-7.4080664E-1,-6.5280485E-1,1.1971805E-1,8.570061E-1,3.85034E-2,-1.1385319E-1,-8.547588E-1,-7.69249E-1,-1.6744764E-1,3.5289097E-1,-6.974893E-1,9.215829E-1,2.2312576E-1,-2.9055762E-1,8.779849E-1,1.6883704E-1,-2.2329919E-1,-9.937614E-1,-2.2679928E-1,-4.8870847E-1,-9.387703E-1,4.347025E-1,-5.243087E-1,8.1908095E-1,-1.442696E-1,-2.0943224E-1,-2.7754477E-1,1.0187604E0,5.9926605E-1,-2.2643928E-1,2.5669459E-1,-6.545676E-1,7.636513E-1,9.8680794E-1,-3.5923067E-2,-7.001285E-2,-3.255187E-1,-2.2555272E-1,1.1088434E-1,-6.200389E-1,4.7125763E-1,2.6943344E-3,-1.0189147E0,6.970254E-1,-1.5187906E-1,-7.306568E-1,2.7232784E-1,2.733467E-1,3.0498546E-1,-4.5020908E-1,2.4531506E-1,-2.123493E-1,1.2284107E-1,3.1494972E-1,9.581738E-2,-1.7003977E-1,2.3269466E-1,-1.699794E-1,1.9295354E-1,-9.544563E-4,-2.4324706E-1,2.650372E-1,-5.529252E-2,3.216764E-1,4.0134534E-2,-8.46002E-2,-3.23145E-1,-5.836236E-2,3.5305262E-1,2.3595463E-1,-2.256083E-1,-9.322055E-2,-3.2342926E-1,2.8848433E-1,-4.8764483E-3,1.0741671E-2,-2.905336E-1,-1.07806996E-1,2.3110461E-1,-1.327843E-1,2.3284504E-1,3.4444924E-2,-2.3218654E-1],"categories":[],"categories_nodes":[],"categories_segments":[],"categories_sizes":[],"default_left":[0,0,0,0,0,0,0,0,0,0,0,0,0,0,0,0,0,0,0,0,0,0,0,0,0,0,0,0,0,0,0,0,0,0,0,0,0,0,0,0,0,0,0,0,0,0,0,0,0,0,0,0,0,0,0,0,0,0,0,0,0,0,0,0,0,0,0,0,0,0,0,0,0,0,0,0,0,0,0,0,0,0,0,0,0,0,0],"id":5,"left_children":[1,3,5,7,9,11,13,15,17,19,21,23,25,27,29,31,33,35,37,-1,-1,39,41,43,45,47,49,51,53,55,-1,57,59,61,-1,63,65,67,-1,-1,-1,-1,-1,69,71,73,75,77,-1,79,81,83,-1,85,-1,-1,-1,-1,-1,-1,-1,-1,-1,-1,-1,-1,-1,-1,-1,-1,-1,-1,-1,-1,-1,-1,-1,-1,-1,-1,-1,-1,-1,-1,-1,-1,-1],"loss_changes":[3.971659E1,2.874181E1,1.3051304E1,2.2495548E1,1.4691772E0,4.5976562E0,6.0079145E0,2.9048004E0,1.7199778E1,2.349732E0,1.380764E0,2.7356262E0,3.9797645E0,5.7245193E0,5.8939385E-1,1.5394859E0,2.5667105E0,1.7698523E1,2.0206337E0,0E0,0E0,7.7216244E-1,1.7279291E0,3.7448268E0,3.0799713E0,2.0915418E0,2.075607E0,1.0840006E0,4.0634923E0,1.380121E0,0E0,7.797394E-1,4.20957E0,2.041259E0,0E0,3.4431095E0,1.521698E0,1.0159893E0,0E0,0E0,0E0,0E0,0E0,3.485425E0,2.0441136E0,3.0741568E0,1.2403221E0,1.1345749E0,0E0,1.7367525E0,1.2448808E0,2.0445633E0,0E0,1.9494386E0,0E0,0E0,0E0,0E0,0E0,0E0,0E0,0E0,0E0,0E0,0E0,0E0,0E0,0E0,0E0,0E0,0E0,0E0,0E0,0E0,0E0,0E0,0E0,0E0,0E0,0E0,0E0,0E0,0E0,0E0,0E0,0E0,0E0],"parents":[2147483647,0,0,1,1,2,2,3,3,4,4,5,5,6,6,7,7,8,8,9,9,10,10,11,11,12,12,13,13,14,14,15,15,16,16,17,17,18,18,21,21,22,22,23,23,24,24,25,25,26,26,27,27,28,28,29,29,31,31,32,32,33,33,35,35,36,36,37,37,43,43,44,44,45,45,46,46,47,47,49,49,50,50,51,51,53,53],"right_children":[2,4,6,8,10,12,14,16,18,20,22,24,26,28,30,32,34,36,38,-1,-1,40,42,44,46,48,50,52,54,56,-1,58,60,62,-1,64,66,68,-1,-1,-1,-1,-1,70,72,74,76,78,-1,80,82,84,-1,86,-1,-1,-1,-1,-1,-1,-1,-1,-1,-1,-1,-1,-1,-1,-1,-1,-1,-1,-1,-1,-1,-1,-1,-1,-1,-1,-1,-1,-1,-1,-1,-1,-1],"split_conditions":[1.2202194E-1,1.075281E0,-4.951433E-1,-3.367286E-2,-1.3857504E0,-3.9783114E-1,9.777409E-1,-3.4576748E-2,-4.951433E-1,-2.226713E-1,-4.893044E-1,-5.841563E-1,-3.134345E-1,-1.1949E-4,-2.833912E-1,7.3188215E-1,-4.951433E-1,-3.9783114E-1,-1.2625852E-3,1.6883704E-1,-2.2329919E-1,-1.3915666E0,-3.0259657E-1,1.3627071E0,-1.5020355E0,1.0021412E0,1.2515413E0,-7.505588E-1,-3.9783114E-1,-4.6219212E-1,-2.7754477E-1,-1.25654E-1,-1.3857504E0,-3.9783114E-1,2.5669459E-1,-1.0684015E0,-4.097539E-2,1.2330096E0,-3.5923067E-2,-7.001285E-2,-3.255187E-1,-2.2555272E-1,1.1088434E-1,-1.16386846E-1,-1.0146854E0,-1.7963468E-1,-1.3647606E0,4.008556E-1,-1.5187906E-1,-9.596091E-1,4.716094E-1,-6.123713E-1,3.0498546E-1,4.3448818E-1,2.4531506E-1,-2.123493E-1,1.2284107E-1,3.1494972E-1,9.581738E-2,-1.7003977E-1,2.3269466E-1,-1.699794E-1,1.9295354E-1,-9.544563E-4,-2.4324706E-1,2.650372E-1,-5.529252E-2,3.216764E-1,4.0134534E-2,-8.46002E-2,-3.23145E-1,-5.836236E-2,3.5305262E-1,2.3595463E-1,-2.256083E-1,-9.322055E-2,-3.2342926E-1,2.8848433E-1,-4.8764483E-3,1.0741671E-2,-2.905336E-1,-1.07806996E-1,2.3110461E-1,-1.327843E-1,2.3284504E-1,3.4444924E-2,-2.3218654E-1],"split_indices":[22,21,23,25,0,24,21,22,23,5,12,3,25,25,17,18,23,24,22,0,0,6,2,21,7,21,20,7,24,18,0,25,0,24,0,0,22,8,0,0,0,0,0,1,3,8,21,20,0,18,19,6,0,25,0,0,0,0,0,0,0,0,0,0,0,0,0,0,0,0,0,0,0,0,0,0,0,0,0,0,0,0,0,0,0,0,0],"split_type":[0,0,0,0,0,0,0,0,0,0,0,0,0,0,0,0,0,0,0,0,0,0,0,0,0,0,0,0,0,0,0,0,0,0,0,0,0,0,0,0,0,0,0,0,0,0,0,0,0,0,0,0,0,0,0,0,0,0,0,0,0,0,0,0,0,0,0,0,0,0,0,0,0,0,0,0,0,0,0,0,0,0,0,0,0,0,0],"sum_hessian":[2.6812015E2,1.5625346E2,1.1186668E2,1.3532689E2,2.092658E1,8.2629166E1,2.923751E1,7.4986626E1,6.034026E1,3.5260026E0,1.7400578E1,6.61693E1,1.6459873E1,2.318915E1,6.0483613E0,6.764172E1,7.344903E0,4.3818222E1,1.6522038E1,1.7525177E0,1.7734848E0,1.3769985E1,3.6305926E0,2.6386003E1,3.978329E1,6.0437737E0,1.04161E1,1.163316E1,1.155599E1,2.5346067E0,3.5137544E0,5.0312054E1,1.7329668E1,4.668662E0,2.6762412E0,3.285332E1,1.0964901E1,1.4907058E1,1.61498E0,1.8573613E0,1.1912623E1,1.7922282E0,1.8383644E0,2.352211E1,2.8638942E0,3.1967776E0,3.6586514E1,4.9289293E0,1.1148443E0,8.338937E0,2.077163E0,3.725241E0,7.9079185E0,9.171264E0,2.3847263E0,1.324393E0,1.2102138E0,4.769205E1,2.6200004E0,1.9861015E0,1.5343566E1,3.6064277E0,1.0622343E0,6.5536003E0,2.629972E1,9.79502E0,1.1698815E0,1.331619E1,1.5908684E0,1.4451788E1,9.070322E0,1.8461376E0,1.0177566E0,1.5474931E0,1.6492845E0,3.303796E0,3.328272E1,3.3413196E0,1.5876098E0,2.1756382E0,6.163299E0,1.038443E0,1.0387199E0,1.58624E0,2.139001E0,3.5758233E0,5.595441E0],"tree_param":{"num_deleted":"0","num_feature":"31","num_nodes":"87","size_leaf_vector":"1"}},{"base_weights":[2.0758498E-3,2.926011E-1,-3.8557997E-1,4.4915885E-1,-6.5850097E-1,-5.6672275E-1,1.1875846E-1,8.2519025E-1,8.447073E-2,-2.9998687E-1,-9.3657726E-1,-6.7976385E-1,-1.2324589E-1,2.997589E-1,-7.8751886E-1,9.432431E-1,3.4702182E-1,-1.7452872E-1,7.7109087E-1,-6.8585384E-1,2.3594923E-1,-3.0333227E-1,-3.8264588E-2,-1.1700011E-1,-7.6408E-1,3.021677E-1,-5.09297E-1,6.0726213E-1,-2.8961882E-1,-2.641127E-1,-6.866216E-2,9.833011E-1,8.570039E-3,-2.933032E-1,6.066182E-1,-4.603548E-1,7.042018E-1,9.3768406E-1,5.3294543E-2,3.4578655E-2,-2.706763E-1,-1.7974885E-1,6.2640715E-1,4.4530135E-1,-2.5899473E-1,-8.739889E-1,-1.8481694E-1,5.682392E-1,-1.9556257E-1,-7.8519493E-1,9.774963E-2,7.697232E-1,-3.7545133E-2,-6.3674694E-1,2.119775E-1,4.098525E-2,3.079774E-1,2.735863E-1,-6.969795E-2,-1.9524798E-1,6.0567234E-2,2.1691523E-2,2.746059E-1,3.0183625E-1,2.4571693E-2,-1.8918133E-1,1.6029793E-1,-3.0322032E-2,3.3801493E-1,2.7344945E-1,-1.4248094E-1,-2.8808454E-1,-4.4239312E-2,1.12786636E-1,-2.625711E-1,2.510724E-1,-7.423842E-3,-2.9938877E-1,1.5592347E-3,2.7647057E-1,-8.764258E-3,1.2923715E-1,-2.0655324E-1,1.00917645E-1,-2.6291442E-1],"categories":[],"categories_nodes":[],"categories_segments":[],"categories_sizes":[],"default_left":[0,0,0,0,0,0,0,0,0,0,0,0,0,0,0,0,0,0,0,0,0,0,0,0,0,0,0,0,0,0,0,0,0,0,0,0,0,0,0,0,0,0,0,0,0,0,0,0,0,0,0,0,0,0,0,0,0,0,0,0,0,0,0,0,0,0,0,0,0,0,0,0,0,0,0,0,0,0,0,0,0,0,0,0,0],"id":6,"left_children":[1,3,5,7,9,11,13,15,17,19,21,23,25,27,29,31,33,35,37,39,41,-1,-1,43,45,47,49,51,53,-1,-1,55,-1,-1,57,59,61,63,65,-1,-1,-1,67,69,-1,71,73,75,-1,77,-1,79,81,83,-1,-1,-1,-1,-1,-1,-1,-1,-1,-1,-1,-1,-1,-1,-1,-1,-1,-1,-1,-1,-1,-1,-1,-1,-1,-1,-1,-1,-1,-1,-1],"loss_changes":[2.5755554E1,1.9759655E1,9.017493E0,1.5403795E1,1.601367E0,3.5383663E0,4.6184206E0,2.8021774E0,1.0519275E1,2.171688E0,4.8378086E-1,2.6321354E0,2.7647989E0,4.3429556E0,4.3510675E-2,1.5796928E0,4.9119983E0,1.11786585E1,1.884675E0,1.12796E0,1.9445136E0,0E0,0E0,4.0162926E0,3.00276E0,2.4496305E0,2.261982E0,1.6455278E0,3.410179E0,0E0,0E0,1.3995094E0,0E0,0E0,3.0599475E0,4.3210254E0,1.4018054E0,6.831074E-1,1.6883398E0,0E0,0E0,0E0,1.4853227E0,2.8333948E0,0E0,2.4606113E0,3.8888776E0,1.1262054E0,0E0,1.1551247E0,0E0,1.5279665E0,1.5341375E0,1.8978665E0,0E0,0E0,0E0,0E0,0E0,0E0,0E0,0E0,0E0,0E0,0E0,0E0,0E0,0E0,0E0,0E0,0E0,0E0,0E0,0E0,0E0,0E0,0E0,0E0,0E0,0E0,0E0,0E0,0E0,0E0,0E0],"parents":[2147483647,0,0,1,1,2,2,3,3,4,4,5,5,6,6,7,7,8,8,9,9,10,10,11,11,12,12,13,13,14,14,15,15,16,16,17,17,18,18,19,19,20,20,23,23,24,24,25,25,26,26,27,27,28,28,31,31,34,34,35,35,36,36,37,37,38,38,42,42,43,43,45,45,46,46,47,47,49,49,51,51,52,52,53,53],"right_children":[2,4,6,8,10,12,14,16,18,20,22,24,26,28,30,32,34,36,38,40,42,-1,-1,44,46,48,50,52,54,-1,-1,56,-1,-1,58,60,62,64,66,-1,-1,-1,68,70,-1,72,74,76,-1,78,-1,80,82,84,-1,-1,-1,-1,-1,-1,-1,-1,-1,-1,-1,-1,-1,-1,-1,-1,-1,-1,-1,-1,-1,-1,-1,-1,-1,-1,-1,-1,-1,-1,-1],"split_conditions":[1.1347398E-1,1.075281E0,-4.951433E-1,-1.702009E-1,-4.324976E-1,-3.9783114E-1,1.1476558E0,8.77096E-1,-4.951433E-1,3.497559E-1,1.2920389E0,-1.4201566E0,-4.0997583E-2,4.3448818E-1,1.3075899E0,3.962466E-2,9.672525E-1,-3.9783114E-1,1.1222242E0,1.2437574E0,-1.012625E0,-3.0333227E-1,-3.8264588E-2,-2.9256302E-1,1.1724018E0,1.0255104E0,1.2326872E0,1.4399128E0,-3.9783114E-1,-2.641127E-1,-6.866216E-2,-1.4400707E0,8.570039E-3,-2.933032E-1,7.221601E-1,1.1779041E0,-1.0819697E0,2.1621873E0,-8.333827E-1,3.4578655E-2,-2.706763E-1,-1.7974885E-1,-8.999293E-1,1.2741937E-1,-2.5899473E-1,1.4699066E0,8.9029914E-1,7.888335E-1,-1.9556257E-1,-4.893044E-1,9.774963E-2,1.1955631E0,-1.1949E-4,-1.3133976E0,2.119775E-1,4.098525E-2,3.079774E-1,2.735863E-1,-6.969795E-2,-1.9524798E-1,6.0567234E-2,2.1691523E-2,2.746059E-1,3.0183625E-1,2.4571693E-2,-1.8918133E-1,1.6029793E-1,-3.0322032E-2,3.3801493E-1,2.7344945E-1,-1.4248094E-1,-2.8808454E-1,-4.4239312E-2,1.12786636E-1,-2.625711E-1,2.510724E-1,-7.423842E-3,-2.9938877E-1,1.5592347E-3,2.7647057E-1,-8.764258E-3,1.2923715E-1,-2.0655324E-1,1.00917645E-1,-2.6291442E-1],"split_indices":[22,21,23,25,19,24,21,20,23,20,20,20,25,25,22,22,20,24,20,21,18,0,0,3,6,21,22,22,24,0,0,8,0,0,15,20,15,27,0,0,0,0,19,19,0,21,22,2,0,12,0,8,25,8,0,0,0,0,0,0,0,0,0,0,0,0,0,0,0,0,0,0,0,0,0,0,0,0,0,0,0,0,0,0,0],"split_type":[0,0,0,0,0,0,0,0,0,0,0,0,0,0,0,0,0,0,0,0,0,0,0,0,0,0,0,0,0,0,0,0,0,0,0,0,0,0,0,0,0,0,0,0,0,0,0,0,0,0,0,0,0,0,0,0,0,0,0,0,0,0,0,0,0,0,0,0,0,0,0,0,0,0,0,0,0,0,0,0,0,0,0,0,0],"sum_hessian":[2.2668484E2,1.2971573E2,9.696912E1,1.1183474E2,1.7880997E1,7.12534E1,2.5715715E1,5.4439365E1,5.739537E1,8.7188635E0,9.162133E0,5.6355675E1,1.4897723E1,2.199262E1,3.723094E0,4.2880238E1,1.1559126E1,4.221667E1,1.5178701E1,4.90651E0,3.8123534E0,8.160576E0,1.0015572E0,7.6544E0,4.8701275E1,7.190906E0,7.706817E0,1.4432323E1,7.560297E0,2.6986225E0,1.0244715E0,4.100922E1,1.8710175E0,1.4407833E0,1.0118342E1,3.2214367E1,1.0002305E1,1.2070845E1,3.1078565E0,1.1428901E0,3.7636197E0,1.0442967E0,2.7680566E0,4.595395E0,3.0590045E0,4.0506756E1,8.194519E0,5.938981E0,1.2519249E0,5.837951E0,1.8688657E0,1.1373111E1,3.0592127E0,5.874253E0,1.6860443E0,2.1969213E0,3.88123E1,7.3545938E0,2.7637491E0,2.5032024E1,7.182342E0,2.8414207E0,7.160884E0,1.1014347E1,1.056498E0,1.1549232E0,1.9529333E0,1.4531151E0,1.3149416E0,3.05647E0,1.5389249E0,3.5918766E1,4.5879917E0,4.7731466E0,3.4213727E0,3.804086E0,2.134895E0,4.392821E0,1.4451306E0,9.427781E0,1.9453295E0,1.9758912E0,1.0833215E0,1.0809233E0,4.7933292E0],"tree_param":{"num_deleted":"0","num_feature":"31","num_nodes":"85","size_leaf_vector":"1"}},{"base_weights":[-7.9623546E-4,2.530127E-1,-3.35399E-1,3.8991678E-1,-5.885785E-1,-4.921123E-1,8.973913E-2,6.8934804E-1,2.5500769E-2,-6.985728E-2,-7.5304395E-1,-2.8878585E-2,-6.03492E-1,2.4888909E-1,-2.1275619E-1,7.637386E-1,5.6031868E-2,-2.0992899E-1,6.910933E-1,-5.041739E-1,1.3118479E-1,-2.9101914E-1,-2.5269043E-1,3.69276E-1,-6.57222E-1,-7.715122E-1,-2.8038937E-1,6.794182E-1,-6.0084023E-2,8.9277655E-1,3.8162357E-1,-3.7118155E-1,6.469222E-1,-4.6154922E-1,5.634578E-1,8.4656554E-1,-6.041223E-2,-4.744891E-2,-1.787532E-1,-2.2040728E-1,2.7576345E-1,7.0631707E-1,-2.2091232E-1,-2.5747037E-1,-1.0252286E-2,-8.071278E-1,3.953833E-2,4.4499588E-1,-8.253629E-1,8.520843E-1,-1.6417786E-2,2.772554E-1,-2.5458246E-1,-1.622415E-2,2.8226638E-1,-1.7169115E-1,1.7658801E-1,3.8956445E-2,-1.8476114E-1,2.7207017E-1,1.4285016E-2,-2.2789064E-1,1.5878417E-2,-1.0819189E-2,2.4349609E-1,2.905505E-1,1.26081575E-2,1.6803734E-1,-4.1150562E-2,4.9599728E-1,5.356391E-2,-2.5449544E-1,-1.6277009E-3,-3.8179816E-3,5.2000624E-1,-1.7871981E-2,-2.8170735E-1,2.8310582E-1,4.7693316E-2,-1.3393061E-1,1.9506487E-1],"categories":[],"categories_nodes":[],"categories_segments":[],"categories_sizes":[],"default_left":[0,0,0,0,0,0,0,0,0,0,0,0,0,0,0,0,0,0,0,0,0,0,0,0,0,0,0,0,0,0,0,0,0,0,0,0,0,0,0,0,0,0,0,0,0,0,0,0,0,0,0,0,0,0,0,0,0,0,0,0,0,0,0,0,0,0,0,0,0,0,0,0,0,0,0,0,0,0,0,0,0],"id":7,"left_children":[1,3,5,7,9,11,13,15,17,19,21,23,25,27,-1,29,31,33,35,37,-1,-1,39,41,43,45,47,49,51,53,55,57,59,61,63,65,-1,-1,-1,-1,67,69,-1,-1,-1,71,-1,73,75,77,-1,-1,79,-1,-1,-1,-1,-1,-1,-1,-1,-1,-1,-1,-1,-1,-1,-1,-1,-1,-1,-1,-1,-1,-1,-1,-1,-1,-1,-1,-1],"loss_changes":[1.6847622E1,1.322745E1,5.7452602E0,1.0635577E1,1.3279438E0,3.2163973E0,3.214467E0,2.480341E0,7.2083325E0,1.321298E0,1.0779505E0,3.5448592E0,2.5240192E0,2.7896075E0,0E0,2.018484E0,1.9336257E0,6.888951E0,1.837008E0,5.886972E-3,0E0,0E0,1.4859331E0,3.7695563E0,6.569164E-1,1.156393E0,7.8151093E0,1.1513586E0,2.714253E0,1.6462669E0,3.0668838E0,6.352192E-1,4.5222354E-1,4.066145E0,1.3405497E0,9.8161554E-1,0E0,0E0,0E0,0E0,4.444121E-1,3.2999487E0,0E0,0E0,0E0,1.0369301E0,0E0,5.17141E0,9.1092587E-1,3.017621E-1,0E0,0E0,2.303306E0,0E0,0E0,0E0,0E0,0E0,0E0,0E0,0E0,0E0,0E0,0E0,0E0,0E0,0E0,0E0,0E0,0E0,0E0,0E0,0E0,0E0,0E0,0E0,0E0,0E0,0E0,0E0,0E0],"parents":[2147483647,0,0,1,1,2,2,3,3,4,4,5,5,6,6,7,7,8,8,9,9,10,10,11,11,12,12,13,13,15,15,16,16,17,17,18,18,19,19,22,22,23,23,24,24,25,25,26,26,27,27,28,28,29,29,30,30,31,31,32,32,33,33,34,34,35,35,40,40,41,41,45,45,47,47,48,48,49,49,52,52],"right_children":[2,4,6,8,10,12,14,16,18,20,22,24,26,28,-1,30,32,34,36,38,-1,-1,40,42,44,46,48,50,52,54,56,58,60,62,64,66,-1,-1,-1,-1,68,70,-1,-1,-1,72,-1,74,76,78,-1,-1,80,-1,-1,-1,-1,-1,-1,-1,-1,-1,-1,-1,-1,-1,-1,-1,-1,-1,-1,-1,-1,-1,-1,-1,-1,-1,-1,-1,-1],"split_conditions":[1.1347398E-1,1.075281E0,-4.951433E-1,1.2937663E-2,-1.0735035E0,-1.0233746E0,1.1476558E0,-3.4576748E-2,-4.951433E-1,3.0870256E-1,8.165581E-1,1.4172614E-1,4.315646E-1,-2.2731291E-1,-2.1275619E-1,7.3188215E-1,2.325735E-1,-3.9783114E-1,-1.2625852E-3,-7.805652E-1,1.3118479E-1,-2.9101914E-1,-6.265603E-1,7.2390735E-1,6.330743E-1,1.6653588E0,-6.1119634E-1,1.0772063E0,1.9180853E0,-1.553488E0,-1.3857504E0,-7.189409E-1,-6.450551E-1,-4.445313E-1,-1.0819697E0,1.2330096E0,-6.041223E-2,-4.744891E-2,-1.787532E-1,-2.2040728E-1,-7.675104E-1,-1.21272E0,-2.2091232E-1,-2.5747037E-1,-1.0252286E-2,1.6143477E0,3.953833E-2,-7.729077E-1,6.728258E-1,1.1583914E0,-1.6417786E-2,2.772554E-1,-3.9783114E-1,-1.622415E-2,2.8226638E-1,-1.7169115E-1,1.7658801E-1,3.8956445E-2,-1.8476114E-1,2.7207017E-1,1.4285016E-2,-2.2789064E-1,1.5878417E-2,-1.0819189E-2,2.4349609E-1,2.905505E-1,1.26081575E-2,1.6803734E-1,-4.1150562E-2,4.9599728E-1,5.356391E-2,-2.5449544E-1,-1.6277009E-3,-3.8179816E-3,5.2000624E-1,-1.7871981E-2,-2.8170735E-1,2.8310582E-1,4.7693316E-2,-1.3393061E-1,1.9506487E-1],"split_indices":[22,21,23,25,7,0,21,22,23,20,7,8,6,25,0,18,17,24,22,22,0,0,4,5,3,22,7,9,23,3,0,5,7,22,15,8,0,0,0,0,17,3,0,0,0,21,0,7,6,13,0,0,24,0,0,0,0,0,0,0,0,0,0,0,0,0,0,0,0,0,0,0,0,0,0,0,0,0,0,0,0],"split_type":[0,0,0,0,0,0,0,0,0,0,0,0,0,0,0,0,0,0,0,0,0,0,0,0,0,0,0,0,0,0,0,0,0,0,0,0,0,0,0,0,0,0,0,0,0,0,0,0,0,0,0,0,0,0,0,0,0,0,0,0,0,0,0,0,0,0,0,0,0,0,0,0,0,0,0,0,0,0,0,0,0],"sum_hessian":[1.9638275E2,1.1181253E2,8.457021E1,9.663012E1,1.5182413E1,6.167734E1,2.2892876E1,5.255521E1,4.4074913E1,3.9978893E0,1.1184524E1,1.2199265E1,4.9478077E1,1.9664154E1,3.228723E0,4.6846584E1,5.708625E0,3.3064217E1,1.1010696E1,2.156717E0,1.8411723E0,7.1462173E0,4.038306E0,7.719835E0,4.4794297E0,3.1637882E1,1.7840195E1,7.714987E0,1.1949167E1,3.4021362E1,1.2825221E1,3.528992E0,2.179633E0,2.5251795E1,7.812423E0,9.420952E0,1.5897437E0,1.0225248E0,1.1341922E0,1.9078758E0,2.1304302E0,6.193127E0,1.5267078E0,3.1013649E0,1.3780646E0,3.0540218E1,1.0976648E0,7.7319975E0,1.0108196E1,6.1159124E0,1.5990742E0,1.3526068E0,1.05965605E1,1.6390903E0,3.238227E1,1.9721766E0,1.08530445E1,1.3119296E0,2.2170622E0,1.162213E0,1.0174199E0,1.5686547E1,9.565247E0,2.5375702E0,5.274853E0,8.004057E0,1.4168952E0,1.0505344E0,1.0798959E0,1.4530984E0,4.7400284E0,2.899248E1,1.5477388E0,6.435678E0,1.2963192E0,1.5033786E0,8.604817E0,5.0826526E0,1.03326E0,9.160719E0,1.435841E0],"tree_param":{"num_deleted":"0","num_feature":"31","num_nodes":"81","size_leaf_vector":"1"}},{"base_weights":[3.4627784E-3,1.9671582E-1,-3.1289586E-1,3.1972286E-1,-5.692385E-1,4.547575E-2,-4.6103698E-1,6.1108243E-1,-7.152465E-2,-8.084489E-1,-1.9257817E-1,4.3500546E-1,-2.7596027E-1,-5.9223855E-1,-7.72755E-2,8.52257E-1,4.3494788E-1,-2.513528E-1,4.6889886E-1,-2.8095922E-1,-5.5357594E-2,-4.2326337E-1,1.557991E-1,1.1965365E0,1.0197928E-2,-2.5865525E-1,1.3907818E-1,-7.25969E-1,-1.11025564E-1,1.2606883E-1,-2.297114E-1,9.4640434E-1,2.3050871E-1,7.57866E-1,1.462715E-1,7.229891E-1,-3.6331737E-1,7.583254E-1,-3.2477808E-1,1.00778855E-1,-6.926159E-1,4.9664092E-1,2.3810312E-2,2.6212168E-1,-3.2505253E-1,-4.6806234E-1,5.59183E-1,-7.7786607E-1,5.67927E-2,-7.366063E-1,2.9832557E-1,5.678032E-1,-2.2493653E-1,3.0578357E-1,1.05025746E-1,1.721217E-1,-1.0483592E-1,6.930168E-2,3.1783563E-1,1.6647863E-1,-9.497792E-2,-2.077346E-2,4.1338015E-1,-1.6474634E-1,7.7774666E-2,-1.3998081E-2,2.7634066E-1,5.895551E-2,-2.0567407E-1,-3.9262526E-2,-2.429319E-1,1.10880695E-1,-1.776086E-1,1.1282532E-2,-2.0490415E-1,3.3475268E-1,-7.049987E-3,-1.907634E-2,-2.5605384E-1,-1.7551761E-2,-2.9608235E-1,-1.0078824E-1,2.2778264E-1,2.4211892E-1,-5.352557E-2,-1.9230284E-1,1.2530744E-1],"categories":[],"categories_nodes":[],"categories_segments":[],"categories_sizes":[],"default_left":[0,0,0,0,0,0,0,0,0,0,0,0,0,0,0,0,0,0,0,0,0,0,0,0,0,0,0,0,0,0,0,0,0,0,0,0,0,0,0,0,0,0,0,0,0,0,0,0,0,0,0,0,0,0,0,0,0,0,0,0,0,0,0,0,0,0,0,0,0,0,0,0,0,0,0,0,0,0,0,0,0,0,0,0,0,0,0],"id":8,"left_children":[1,3,5,7,9,11,13,15,17,19,21,23,25,27,29,31,33,35,37,-1,-1,39,-1,41,43,-1,45,47,49,51,-1,53,55,57,59,61,63,65,67,-1,69,-1,-1,-1,71,73,75,77,-1,79,81,83,85,-1,-1,-1,-1,-1,-1,-1,-1,-1,-1,-1,-1,-1,-1,-1,-1,-1,-1,-1,-1,-1,-1,-1,-1,-1,-1,-1,-1,-1,-1,-1,-1,-1,-1],"loss_changes":[1.0657021E1,1.0376331E1,3.5305343E0,1.0744099E1,1.2256889E0,2.6548448E0,2.3137398E0,1.9192333E0,4.0986185E0,5.5150795E-1,1.4133433E0,3.074338E0,2.9674644E0,2.1571074E0,1.928905E0,1.0526791E0,2.9836912E0,3.6865606E0,2.6757033E0,0E0,0E0,1.4677738E0,0E0,1.615838E0,2.3490622E0,0E0,2.2291293E0,1.4311905E0,2.4585333E0,1.8276107E0,0E0,4.4854927E-1,1.031992E0,2.2069645E0,3.725473E0,1.9474223E0,3.4762688E0,1.0979738E0,7.979626E-1,0E0,2.0891762E-1,0E0,0E0,0E0,1.3069108E0,4.2773104E-1,1.6527201E0,1.3384418E0,0E0,5.781827E-1,2.008236E0,1.0613517E0,2.0927062E0,0E0,0E0,0E0,0E0,0E0,0E0,0E0,0E0,0E0,0E0,0E0,0E0,0E0,0E0,0E0,0E0,0E0,0E0,0E0,0E0,0E0,0E0,0E0,0E0,0E0,0E0,0E0,0E0,0E0,0E0,0E0,0E0,0E0,0E0],"parents":[2147483647,0,0,1,1,2,2,3,3,4,4,5,5,6,6,7,7,8,8,9,9,10,10,11,11,12,12,13,13,14,14,15,15,16,16,17,17,18,18,21,21,23,23,24,24,26,26,27,27,28,28,29,29,31,31,32,32,33,33,34,34,35,35,36,36,37,37,38,38,40,40,44,44,45,45,46,46,47,47,49,49,50,50,51,51,52,52],"right_children":[2,4,6,8,10,12,14,16,18,20,22,24,26,28,30,32,34,36,38,-1,-1,40,-1,42,44,-1,46,48,50,52,-1,54,56,58,60,62,64,66,68,-1,70,-1,-1,-1,72,74,76,78,-1,80,82,84,86,-1,-1,-1,-1,-1,-1,-1,-1,-1,-1,-1,-1,-1,-1,-1,-1,-1,-1,-1,-1,-1,-1,-1,-1,-1,-1,-1,-1,-1,-1,-1,-1,-1,-1],"split_conditions":[3.0218711E-1,1.075281E0,-7.686577E-1,1.07538484E-1,3.6322552E-1,-1.1117761E-1,-4.951433E-1,-3.1418434E-1,-4.951433E-1,-3.74358E-1,-4.951433E-1,-7.8910077E-1,-3.0877003E-1,-3.9783114E-1,1.0802633E0,-1.25654E-1,-8.143703E-1,-1.5020355E0,-1.2625852E-3,-2.8095922E-1,-5.5357594E-2,4.4816923E-1,1.557991E-1,-1.178326E0,-1.2555003E0,-2.5865525E-1,-3.7197083E-1,1.5437539E0,-1.7641876E-4,-1.1949E-4,-2.297114E-1,1.06155E0,4.488079E-1,-4.1848806E-1,-2.6366246E-1,1.2615744E0,-3.9783114E-1,-1.178326E0,8.639759E-2,1.00778855E-1,-5.4845846E-1,4.9664092E-1,2.3810312E-2,2.6212168E-1,-9.9594545E-1,-7.066555E-1,6.4419305E-1,-1.5020355E0,5.67927E-2,-3.7416175E-1,-3.708192E-1,9.327297E-1,4.1689897E-1,3.0578357E-1,1.05025746E-1,1.721217E-1,-1.0483592E-1,6.930168E-2,3.1783563E-1,1.6647863E-1,-9.497792E-2,-2.077346E-2,4.1338015E-1,-1.6474634E-1,7.7774666E-2,-1.3998081E-2,2.7634066E-1,5.895551E-2,-2.0567407E-1,-3.9262526E-2,-2.429319E-1,1.10880695E-1,-1.776086E-1,1.1282532E-2,-2.0490415E-1,3.3475268E-1,-7.049987E-3,-1.907634E-2,-2.5605384E-1,-1.7551761E-2,-2.9608235E-1,-1.0078824E-1,2.2778264E-1,2.4211892E-1,-5.352557E-2,-1.9230284E-1,1.2530744E-1],"split_indices":[22,21,0,25,20,21,23,18,23,10,23,17,7,24,21,25,22,7,22,0,0,20,0,0,8,0,17,16,19,25,0,17,8,8,5,20,24,0,17,0,25,0,0,0,3,6,22,7,0,5,8,5,16,0,0,0,0,0,0,0,0,0,0,0,0,0,0,0,0,0,0,0,0,0,0,0,0,0,0,0,0,0,0,0,0,0,0],"split_type":[0,0,0,0,0,0,0,0,0,0,0,0,0,0,0,0,0,0,0,0,0,0,0,0,0,0,0,0,0,0,0,0,0,0,0,0,0,0,0,0,0,0,0,0,0,0,0,0,0,0,0,0,0,0,0,0,0,0,0,0,0,0,0,0,0,0,0,0,0,0,0,0,0,0,0,0,0,0,0,0,0,0,0,0,0,0,0],"sum_hessian":[1.7230623E2,1.0719968E2,6.510655E1,9.286825E1,1.4331426E1,1.9244576E1,4.5861977E1,5.2906914E1,3.9961334E1,8.063852E0,6.267573E0,8.54096E0,1.0703614E1,3.3772488E1,1.2089488E1,2.071034E1,3.2196575E1,3.0385374E1,9.575959E0,6.274717E0,1.7891358E0,5.039906E0,1.2276671E0,2.4078584E0,6.1331024E0,3.990229E0,6.713385E0,2.603004E1,7.742446E0,9.963423E0,2.1260653E0,1.7533232E1,3.1771088E0,1.4429825E1,1.776675E1,2.5693133E0,2.7816061E1,7.049714E0,2.5262454E0,1.2551069E0,3.784799E0,1.365193E0,1.0426652E0,1.2659725E0,4.86713E0,2.6988373E0,4.014548E0,2.4775387E1,1.2546549E0,2.7461944E0,4.9962516E0,4.138076E0,5.825347E0,1.499184E1,2.5413907E0,2.0026433E0,1.1744654E0,5.895885E0,8.533939E0,9.330271E0,8.43648E0,1.5675037E0,1.0018095E0,2.1512468E1,6.3035917E0,1.3059725E0,5.743742E0,1.2195445E0,1.3067008E0,1.018486E0,2.766313E0,1.2445325E0,3.6225972E0,1.0511222E0,1.6477151E0,1.5851687E0,2.4293792E0,2.548861E0,2.2226524E1,1.0731053E0,1.6730889E0,2.216883E0,2.7793686E0,3.0716767E0,1.066399E0,3.5374956E0,2.2878516E0],"tree_param":{"num_deleted":"0","num_feature":"31","num_nodes":"87","size_leaf_vector":"1"}},{"base_weights":[8.638572E-3,-1.235713E-1,3.9184982E-1,1.16548665E-1,-3.1861606E-1,8.019364E-1,1.6636883E-1,5.1150024E-1,-1.5561089E-1,5.8442637E-2,-4.2886683E-1,9.00653E-1,-6.9905005E-2,2.7831545E-1,3.8020812E-2,6.276664E-1,-1.9059226E-1,-3.6865884E-1,5.6821597E-1,3.507833E-1,-4.72649E-1,-2.6882768E-1,-8.4739095E-1,2.9176438E-1,8.9467674E-2,-2.7605066E-1,1.2267874E-1,8.8285315E-1,-7.421659E-2,-5.9164804E-1,3.7267855E-1,-1.1205549E-1,7.690712E-1,8.657312E-1,-1.3541925E-1,-7.216202E-1,7.8716606E-2,-4.934626E-1,8.9647904E-2,-1.6356329E-2,-9.257016E-1,4.2623064E-1,-1.7349824E-1,1.2171195E-2,2.8251532E-1,1.7570056E-1,-3.177875E-1,-2.5997415E-1,1.2481094E-1,2.0816824E-1,-1.9349493E-1,-4.2038426E-2,3.0074817E-1,5.2568436E-1,-1.730133E-2,-1.735568E-1,1.8058586E-1,-6.43138E-2,-2.4258937E-1,-2.809594E-3,-2.1375957E-1,2.0417877E-1,-1.5729256E-1,-3.017906E-1,-1.1105468E-1,1.9377774E-1,-1.558527E-1,-1.332223E-1,9.4639994E-2],"categories":[],"categories_nodes":[],"categories_segments":[],"categories_sizes":[],"default_left":[0,0,0,0,0,0,0,0,0,0,0,0,0,0,0,0,0,0,0,0,0,0,0,0,0,0,0,0,0,0,0,0,0,0,0,0,0,0,0,0,0,0,0,0,0,0,0,0,0,0,0,0,0,0,0,0,0,0,0,0,0,0,0,0,0,0,0,0,0],"id":9,"left_children":[1,3,5,7,9,11,13,15,17,19,21,23,-1,-1,25,27,-1,29,31,33,35,37,39,-1,-1,-1,41,43,45,47,49,-1,51,53,55,57,-1,59,61,-1,63,65,67,-1,-1,-1,-1,-1,-1,-1,-1,-1,-1,-1,-1,-1,-1,-1,-1,-1,-1,-1,-1,-1,-1,-1,-1,-1,-1],"loss_changes":[7.88176E0,5.4564714E0,3.5559282E0,5.7331266E0,2.6904912E0,1.6293058E0,2.6036777E0,3.2884016E0,5.129584E0,2.554661E0,3.1032047E0,2.682047E-1,0E0,0E0,2.0721147E0,3.6833258E0,0E0,4.3956385E0,1.7340586E0,2.7455382E0,1.2669654E0,3.0590913E0,7.748146E-1,0E0,0E0,0E0,2.1484544E0,7.000761E-1,4.72088E0,5.8467526E0,2.5572197E0,0E0,1.5477941E0,4.3853483E0,2.3949914E0,3.255129E-2,0E0,2.4505448E0,5.896781E0,0E0,1.6421795E-1,2.7633276E0,1.7792842E0,0E0,0E0,0E0,0E0,0E0,0E0,0E0,0E0,0E0,0E0,0E0,0E0,0E0,0E0,0E0,0E0,0E0,0E0,0E0,0E0,0E0,0E0,0E0,0E0,0E0,0E0],"parents":[2147483647,0,0,1,1,2,2,3,3,4,4,5,5,6,6,7,7,8,8,9,9,10,10,11,11,14,14,15,15,17,17,18,18,19,19,20,20,21,21,22,22,26,26,27,27,28,28,29,29,30,30,32,32,33,33,34,34,35,35,37,37,38,38,40,40,41,41,42,42],"right_children":[2,4,6,8,10,12,14,16,18,20,22,24,-1,-1,26,28,-1,30,32,34,36,38,40,-1,-1,-1,42,44,46,48,50,-1,52,54,56,58,-1,60,62,-1,64,66,68,-1,-1,-1,-1,-1,-1,-1,-1,-1,-1,-1,-1,-1,-1,-1,-1,-1,-1,-1,-1,-1,-1,-1,-1,-1,-1],"split_conditions":[-4.951433E-1,-1.4463326E-1,-3.261373E-1,-2.6120183E-1,-1.0233746E0,1.2734544E0,1.9180853E0,1.3062366E0,1.0026934E0,1.4172614E-1,1.2999506E0,1.2698754E0,-6.9905005E-2,2.7831545E-1,-2.714644E-1,8.77096E-1,-1.9059226E-1,-3.9783114E-1,-1.3558842E0,-1.3987634E-1,1.1055404E0,4.2383963E-1,-1.4127398E0,2.9176438E-1,8.9467674E-2,-2.7605066E-1,3.2339245E-2,-1.4347483E0,2.4223123E-1,-3.6780584E-1,8.578593E-1,-1.1205549E-1,-7.0829564E-1,-4.3420723E-1,7.716672E-1,-3.6254922E-1,7.8716606E-2,-8.997794E-1,-6.1119634E-1,-1.6356329E-2,-3.9783114E-1,1.1123884E0,7.2203356E-1,1.2171195E-2,2.8251532E-1,1.7570056E-1,-3.177875E-1,-2.5997415E-1,1.2481094E-1,2.0816824E-1,-1.9349493E-1,-4.2038426E-2,3.0074817E-1,5.2568436E-1,-1.730133E-2,-1.735568E-1,1.8058586E-1,-6.43138E-2,-2.4258937E-1,-2.809594E-3,-2.1375957E-1,2.0417877E-1,-1.5729256E-1,-3.017906E-1,-1.1105468E-1,1.9377774E-1,-1.558527E-1,-1.332223E-1,9.4639994E-2],"split_indices":[23,22,22,25,0,21,23,21,7,8,4,20,0,0,22,20,0,24,16,21,18,6,16,0,0,0,25,8,17,22,21,0,8,15,7,25,0,20,7,0,24,21,18,0,0,0,0,0,0,0,0,0,0,0,0,0,0,0,0,0,0,0,0,0,0,0,0,0,0],"split_type":[0,0,0,0,0,0,0,0,0,0,0,0,0,0,0,0,0,0,0,0,0,0,0,0,0,0,0,0,0,0,0,0,0,0,0,0,0,0,0,0,0,0,0,0,0,0,0,0,0,0,0,0,0,0,0,0,0,0,0,0,0,0,0,0,0,0,0,0,0],"sum_hessian":[1.5361256E2,1.1471339E2,3.8899178E1,5.159596E1,6.3117428E1,1.2893311E1,2.6005867E1,2.0690695E1,3.0905266E1,1.4386247E1,4.8731182E1,1.1889064E1,1.0042467E0,2.8531408E0,2.3152727E1,1.9198647E1,1.4920477E0,2.425642E1,6.648845E0,9.497714E0,4.8885336E0,3.643945E1,1.2291733E1,1.0072598E1,1.8164655E0,1.0783465E0,2.207438E1,1.3890559E1,5.308088E0,1.8802635E1,5.4537854E0,1.0176817E0,5.6311636E0,4.2334137E0,5.2643E0,3.665286E0,1.2232475E0,2.2170183E1,1.4269266E1,1.25738E0,1.1034353E1,1.0684611E1,1.138977E1,1.017699E0,1.287286E1,3.4215245E0,1.8865633E0,1.4882252E1,3.9203835E0,4.387165E0,1.06662E0,1.2320223E0,4.3991413E0,1.7018487E0,2.5315647E0,3.4228559E0,1.8414443E0,1.0438511E0,2.621435E0,7.2319145E0,1.4938268E1,7.2155666E0,7.0536995E0,8.932794E0,2.1015596E0,8.927719E0,1.7568918E0,7.3914227E0,3.998347E0],"tree_param":{"num_deleted":"0","num_feature":"31","num_nodes":"69","size_leaf_vector":"1"}},{"base_weights":[6.905094E-3,-9.193134E-2,4.0382862E-1,6.2731205E-4,-6.5524215E-1,5.5972886E-1,-5.006349E-1,7.874779E-2,-5.495557E-1,-8.2314235E-1,-8.297151E-2,-8.65387E-2,6.319723E-1,-2.3278415E-1,4.1908592E-2,2.2595827E-1,-2.3038389E-1,-7.722738E-1,2.0988102E-1,-3.365635E-1,-2.9214814E-1,-1.7517152E-1,1.899117E-1,7.1310014E-1,-1.0789127E-1,3.3033136E-1,-4.6659932E-1,-4.57522E-1,2.706829E-1,-4.8533496E-2,-8.548801E-1,-1.8756703E-1,2.9702583E-1,5.177688E-2,-5.9609205E-1,7.831031E-1,-3.9264128E-2,-1.3339527E-1,7.839312E-2,1.5548015E-1,-4.986722E-2,5.4509062E-2,-2.255379E-1,2.9570498E-2,-2.1684657E-1,-1.2184192E-1,1.8256217E-1,-2.8314942E-1,-7.771548E-2,-2.1537761E-1,-5.9727937E-2,3.097996E-1,1.4313991E-1],"categories":[],"categories_nodes":[],"categories_segments":[],"categories_sizes":[],"default_left":[0,0,0,0,0,0,0,0,0,0,0,0,0,0,0,0,0,0,0,0,0,0,0,0,0,0,0,0,0,0,0,0,0,0,0,0,0,0,0,0,0,0,0,0,0,0,0,0,0,0,0,0,0],"id":10,"left_children":[1,3,5,7,9,11,13,15,17,19,21,-1,23,-1,-1,25,27,29,31,33,-1,-1,-1,35,37,39,41,43,45,-1,47,-1,-1,-1,49,51,-1,-1,-1,-1,-1,-1,-1,-1,-1,-1,-1,-1,-1,-1,-1,-1,-1],"loss_changes":[5.564209E0,5.924173E0,4.266919E0,4.2802815E0,1.4723768E0,1.6889906E0,9.342735E-1,4.020181E0,2.2564278E0,5.729971E-1,2.073113E0,0E0,1.4557962E0,0E0,0E0,4.4603543E0,3.3815742E0,3.553214E-1,2.9608161E0,6.886614E-1,0E0,0E0,0E0,1.333353E0,5.0642145E-1,4.972093E0,1.6557941E0,3.031807E0,2.432441E0,0E0,2.0006704E-1,0E0,0E0,0E0,9.949207E-3,9.8718166E-1,0E0,0E0,0E0,0E0,0E0,0E0,0E0,0E0,0E0,0E0,0E0,0E0,0E0,0E0,0E0,0E0,0E0],"parents":[2147483647,0,0,1,1,2,2,3,3,4,4,5,5,6,6,7,7,8,8,9,9,10,10,12,12,15,15,16,16,17,17,18,18,19,19,23,23,24,24,25,25,26,26,27,27,28,28,30,30,34,34,35,35],"right_children":[2,4,6,8,10,12,14,16,18,20,22,-1,24,-1,-1,26,28,30,32,34,-1,-1,-1,36,38,40,42,44,46,-1,48,-1,-1,-1,50,52,-1,-1,-1,-1,-1,-1,-1,-1,-1,-1,-1,-1,-1,-1,-1,-1,-1],"split_conditions":[-3.9783114E-1,1.202347E0,1.05489E0,1.2458833E0,8.0904967E-1,-1.5406915E0,9.484221E-1,6.6856927E-1,1.0465114E0,-4.391635E-1,1.5494142E0,-8.65387E-2,2.299647E0,-2.3278415E-1,4.1908592E-2,1.2954793E0,-4.951433E-1,-1.0580839E0,3.754298E-1,-7.294792E-1,-2.9214814E-1,-1.7517152E-1,1.899117E-1,1.5287793E0,-9.925628E-1,6.2541175E-1,-4.5856088E-1,-8.143703E-1,-6.069661E-1,-4.8533496E-2,-4.951433E-1,-1.8756703E-1,2.9702583E-1,5.177688E-2,-1.5572818E-1,2.0928901E-1,-3.9264128E-2,-1.3339527E-1,7.839312E-2,1.5548015E-1,-4.986722E-2,5.4509062E-2,-2.255379E-1,2.9570498E-2,-2.1684657E-1,-1.2184192E-1,1.8256217E-1,-2.8314942E-1,-7.771548E-2,-2.1537761E-1,-5.9727937E-2,3.097996E-1,1.4313991E-1],"split_indices":[24,22,21,25,19,3,20,18,5,25,22,0,28,0,0,8,23,8,8,20,0,0,0,5,1,21,22,22,16,0,23,0,0,0,3,3,0,0,0,0,0,0,0,0,0,0,0,0,0,0,0,0,0],"split_type":[0,0,0,0,0,0,0,0,0,0,0,0,0,0,0,0,0,0,0,0,0,0,0,0,0,0,0,0,0,0,0,0,0,0,0,0,0,0,0,0,0,0,0,0,0,0,0,0,0,0,0,0,0],"sum_hessian":[1.398874E2,1.12614174E2,2.7273241E1,9.7579575E1,1.5034596E1,2.3588495E1,3.6847456E0,8.619729E1,1.1382282E1,1.1285213E1,3.7493827E0,1.6165128E0,2.1971981E1,2.4287176E0,1.2560279E0,5.8573345E1,2.7623947E1,8.788112E0,2.59417E0,3.4330497E0,7.852164E0,2.3145704E0,1.4348123E0,1.9833378E1,2.1386042E0,5.135659E1,7.2167563E0,1.9067417E1,8.556529E0,1.3999937E0,7.388118E0,1.3489467E0,1.2452235E0,1.2721956E0,2.160854E0,1.8380924E1,1.452453E0,1.0115668E0,1.1270375E0,3.7224262E1,1.4132325E1,2.315687E0,4.9010696E0,6.3615503E0,1.2705868E1,2.7817695E0,5.77476E0,5.920222E0,1.4678963E0,1.0348823E0,1.1259719E0,8.815539E0,9.565385E0],"tree_param":{"num_deleted":"0","num_feature":"31","num_nodes":"53","size_leaf_vector":"1"}},{"base_weights":[-4.69294E-3,-1.0778139E-1,3.040146E-1,2.9614413E-2,-3.3351344E-1,6.973594E-1,1.137089E-1,-7.108308E-2,3.902386E-1,1.7519683E-1,-4.7581285E-1,8.3982813E-1,-2.3589099E-2,2.1092632E-1,-2.3360407E-1,3.3522272E-1,-2.0775351E-1,5.8487606E-1,-3.4368578E-1,-3.7628093E-1,-3.6338055E-1,5.0876535E-2,2.7343202E-1,3.2236543E-1,-3.2798615E-1,-4.6888983E-1,5.316712E-1,-7.594831E-3,-5.924255E-1,-1.295219E-2,2.7751368E-1,-7.6517916E-1,1.6237141E-1,-1.6870996E-1,-7.762957E-1,-3.4810248E-1,4.3026516E-1,8.488659E-2,-2.1095711E-1,-4.2285986E-2,-1.649122E-1,2.0709886E-1,-6.8465926E-2,1.4359796E-1,-6.479496E-2,4.6905473E-2,-2.1202421E-1,-3.3670437E-1,-1.360766E-2,5.998906E-2,-1.5901986E-1,-2.6097536E-1,-2.3515275E-2,-2.5019914E-1,8.3668604E-2,1.6427541E-1,-9.093589E-2],"categories":[],"categories_nodes":[],"categories_segments":[],"categories_sizes":[],"default_left":[0,0,0,0,0,0,0,0,0,0,0,0,0,0,0,0,0,0,0,0,0,0,0,0,0,0,0,0,0,0,0,0,0,0,0,0,0,0,0,0,0,0,0,0,0,0,0,0,0,0,0,0,0,0,0,0,0],"id":11,"left_children":[1,3,5,7,9,11,13,15,-1,17,19,21,-1,23,-1,25,27,29,31,-1,33,-1,-1,35,37,39,41,43,45,-1,-1,47,-1,49,51,53,55,-1,-1,-1,-1,-1,-1,-1,-1,-1,-1,-1,-1,-1,-1,-1,-1,-1,-1,-1,-1],"loss_changes":[4.248775E0,3.112954E0,2.422843E0,8.171357E0,2.8296595E0,1.2494245E0,2.2222645E0,3.3697672E0,0E0,2.1191816E0,2.1624527E0,2.8361273E-1,0E0,1.4376785E0,0E0,2.6727264E0,3.4670835E0,1.1962752E0,2.1340008E0,0E0,2.0833364E0,0E0,0E0,1.5157943E0,1.1837345E0,1.6429842E-2,1.7005026E0,3.2111368E0,1.430346E0,0E0,0E0,8.58608E-1,0E0,2.770269E0,4.903655E-1,1.1984514E0,1.6039007E0,0E0,0E0,0E0,0E0,0E0,0E0,0E0,0E0,0E0,0E0,0E0,0E0,0E0,0E0,0E0,0E0,0E0,0E0,0E0,0E0],"parents":[2147483647,0,0,1,1,2,2,3,3,4,4,5,5,6,6,7,7,9,9,10,10,11,11,13,13,15,15,16,16,17,17,18,18,20,20,23,23,24,24,25,25,26,26,27,27,28,28,31,31,33,33,34,34,35,35,36,36],"right_children":[2,4,6,8,10,12,14,16,-1,18,20,22,-1,24,-1,26,28,30,32,-1,34,-1,-1,36,38,40,42,44,46,-1,-1,48,-1,50,52,54,56,-1,-1,-1,-1,-1,-1,-1,-1,-1,-1,-1,-1,-1,-1,-1,-1,-1,-1,-1,-1],"split_conditions":[-4.951433E-1,7.888335E-1,-3.261373E-1,-3.0259657E-1,-8.143703E-1,1.075281E0,1.5677572E0,-9.911734E-1,3.902386E-1,3.0762815E-1,-6.1001307E-1,-1.3857504E0,-2.3589099E-2,1.1955631E0,-2.3360407E-1,-8.790869E-1,4.845476E-1,-4.8534366E-1,-6.265603E-1,-3.7628093E-1,7.3942226E-1,5.0876535E-2,2.7343202E-1,-1.3295399E0,-2.6120183E-1,-4.5062926E-1,-5.3879476E-1,-8.752458E-1,-1.5020355E0,-1.295219E-2,2.7751368E-1,-1.3195454E0,1.6237141E-1,5.130229E-1,-3.74358E-1,-4.579441E-1,1.1476558E0,8.488659E-2,-2.1095711E-1,-4.2285986E-2,-1.649122E-1,2.0709886E-1,-6.8465926E-2,1.4359796E-1,-6.479496E-2,4.6905473E-2,-2.1202421E-1,-3.3670437E-1,-1.360766E-2,5.998906E-2,-1.5901986E-1,-2.6097536E-1,-2.3515275E-2,-2.5019914E-1,8.3668604E-2,1.6427541E-1,-9.093589E-2],"split_indices":[23,2,22,2,22,21,0,0,0,6,22,0,0,8,0,20,25,18,4,0,30,0,0,7,25,21,9,21,7,0,0,22,0,1,10,6,21,0,0,0,0,0,0,0,0,0,0,0,0,0,0,0,0,0,0,0,0],"split_type":[0,0,0,0,0,0,0,0,0,0,0,0,0,0,0,0,0,0,0,0,0,0,0,0,0,0,0,0,0,0,0,0,0,0,0,0,0,0,0,0,0,0,0,0,0,0,0,0,0,0,0,0,0,0,0,0,0],"sum_hessian":[1.3147815E2,9.905201E1,3.2426136E1,6.211402E1,3.693799E1,9.704137E0,2.2721998E1,5.8429565E1,3.6844575E0,8.023469E0,2.891452E1,8.129352E0,1.5747852E0,2.1178444E1,1.5435543E0,1.4341405E1,4.408816E1,4.412463E0,3.6110058E0,2.3673966E0,2.6547123E1,1.1098695E0,7.0194826E0,1.7882442E1,3.296002E0,2.5434794E0,1.1797926E1,2.9669693E1,1.4418467E1,1.8569973E0,2.555466E0,2.5376348E0,1.073371E0,1.8998692E1,7.548431E0,2.1703207E0,1.5712122E1,1.3475927E0,1.9484093E0,1.0454414E0,1.498038E0,9.835835E0,1.9620904E0,8.511634E0,2.115806E1,1.8611035E0,1.2557363E1,1.3223101E0,1.2153248E0,9.625209E0,9.373483E0,6.438299E0,1.1101317E0,1.0367464E0,1.1335744E0,1.3763691E1,1.9484303E0],"tree_param":{"num_deleted":"0","num_feature":"31","num_nodes":"57","size_leaf_vector":"1"}},{"base_weights":[-7.909235E-3,-9.380397E-2,3.5025683E-1,-2.0021738E-2,-5.790074E-1,4.7199973E-1,-3.92575E-1,2.9987743E-1,-1.1158314E-1,-7.529772E-1,-5.4102644E-2,7.9647094E-1,2.3796453E-1,-2.0853876E-1,5.30181E-2,5.613703E-2,3.6379692E-1,-7.88477E-3,-5.475815E-1,-3.0509928E-1,-2.735881E-1,-1.5156578E-1,1.5686193E-1,2.8334337E-1,4.0409643E-2,6.18415E-1,-7.155336E-2,6.581566E-1,-2.623094E-1,1.5385938E-1,-3.8755494E-1,-6.921242E-1,8.65267E-2,4.168511E-2,-1.5993823E-1,-7.0300535E-3,2.6003236E-1,1.8973756E-1,-2.0479552E-1,-9.015666E-2,2.8145817E-1,-1.3538595E-1,1.4317723E-1,7.590395E-2,-2.0621875E-1,-1.8739545E-1,6.6040516E-2,-2.4715291E-1,1.4439444E-2,-8.202453E-2,1.7079626E-1],"categories":[],"categories_nodes":[],"categories_segments":[],"categories_sizes":[],"default_left":[0,0,0,0,0,0,0,0,0,0,0,0,0,0,0,0,0,0,0,0,0,0,0,0,0,0,0,0,0,0,0,0,0,0,0,0,0,0,0,0,0,0,0,0,0,0,0,0,0,0,0],"id":12,"left_children":[1,3,5,7,9,11,13,15,17,19,21,23,25,-1,-1,27,-1,29,31,33,-1,-1,-1,-1,-1,35,37,39,41,43,45,47,-1,-1,-1,-1,-1,49,-1,-1,-1,-1,-1,-1,-1,-1,-1,-1,-1,-1,-1],"loss_changes":[3.8919823E0,3.6387053E0,2.3987012E0,2.6561975E0,1.185009E0,1.4418283E0,8.105093E-1,4.425348E0,3.1761694E0,4.3410683E-1,1.4142946E0,7.1277857E-1,1.681864E0,0E0,0E0,3.42959E0,0E0,3.611787E0,1.8311491E0,4.9161625E-1,0E0,0E0,0E0,0E0,0E0,1.0313265E0,1.4970648E0,1.9363613E0,1.8682481E0,3.617167E0,2.6682467E0,1.1907625E0,0E0,0E0,0E0,0E0,0E0,1.3479489E0,0E0,0E0,0E0,0E0,0E0,0E0,0E0,0E0,0E0,0E0,0E0,0E0,0E0],"parents":[2147483647,0,0,1,1,2,2,3,3,4,4,5,5,6,6,7,7,8,8,9,9,10,10,11,11,12,12,15,15,17,17,18,18,19,19,25,25,26,26,27,27,28,28,29,29,30,30,31,31,37,37],"right_children":[2,4,6,8,10,12,14,16,18,20,22,24,26,-1,-1,28,-1,30,32,34,-1,-1,-1,-1,-1,36,38,40,42,44,46,48,-1,-1,-1,-1,-1,50,-1,-1,-1,-1,-1,-1,-1,-1,-1,-1,-1,-1,-1],"split_conditions":[-3.9783114E-1,1.202347E0,1.05489E0,-3.169742E-1,8.0904967E-1,-1.4866304E-1,8.258346E-1,-1.3483925E0,1.9679979E0,-4.391635E-1,1.5494142E0,9.183417E-1,-1.2625852E-3,-2.0853876E-1,5.30181E-2,-8.4449613E-1,3.6379692E-1,6.0024065E-1,-3.1561232E-1,-7.294792E-1,-2.735881E-1,-1.5156578E-1,1.5686193E-1,2.8334337E-1,4.0409643E-2,-7.075766E-1,6.8693507E-1,-8.888962E-1,-3.8401E-1,1.4355074E0,5.9568703E-1,1.351247E0,8.65267E-2,4.168511E-2,-1.5993823E-1,-7.0300535E-3,2.6003236E-1,-1.2701847E-1,-2.0479552E-1,-9.015666E-2,2.8145817E-1,-1.3538595E-1,1.4317723E-1,7.590395E-2,-2.0621875E-1,-1.8739545E-1,6.6040516E-2,-2.4715291E-1,1.4439444E-2,-8.202453E-2,1.7079626E-1],"split_indices":[24,22,21,2,19,25,18,2,26,25,22,16,22,0,0,5,0,17,14,20,0,0,0,0,0,16,15,15,11,6,8,7,0,0,0,0,0,6,0,0,0,0,0,0,0,0,0,0,0,0,0],"split_type":[0,0,0,0,0,0,0,0,0,0,0,0,0,0,0,0,0,0,0,0,0,0,0,0,0,0,0,0,0,0,0,0,0,0,0,0,0,0,0,0,0,0,0,0,0,0,0,0,0,0,0],"sum_hessian":[1.2444059E2,1.0096536E2,2.3475233E1,8.854246E1,1.2422904E1,2.0482882E1,2.9923513E0,1.919687E1,6.934559E1,9.004147E0,3.4187577E0,7.5760627E0,1.2906818E1,1.8096155E0,1.1827357E0,1.5988851E1,3.2080204E0,5.6843857E1,1.2501728E1,3.1235962E0,5.88055E0,1.988437E0,1.4303206E0,5.8422375E0,1.7338254E0,5.342265E0,7.5645537E0,5.1624746E0,1.0826376E1,4.0279186E1,1.6564672E1,1.0805578E1,1.69615E0,1.1923405E0,1.9312557E0,1.7431071E0,3.599158E0,5.7818766E0,1.782677E0,1.1505463E0,4.011928E0,8.933459E0,1.892917E0,3.665779E1,3.6213944E0,1.1895577E1,4.669095E0,9.077448E0,1.7281297E0,2.7302406E0,3.0516357E0],"tree_param":{"num_deleted":"0","num_feature":"31","num_nodes":"51","size_leaf_vector":"1"}},{"base_weights":[-5.631398E-3,1.5915787E-1,-1.4986311E-1,3.0970198E-1,-3.1316847E-1,-8.650208E-2,-5.7138294E-1,1.4128827E-1,7.5982845E-1,-5.2682036E-1,2.3193187E-1,1.9668873E-1,-2.077012E-1,-7.1054554E-1,5.5584185E-2,6.694121E-1,-4.1113038E-2,9.5816857E-1,-3.597355E-2,9.468588E-2,-7.217167E-1,-8.482642E-2,4.7203165E-1,-2.1408789E-1,9.7680575E-1,-6.124941E-1,-5.8051705E-2,-3.736603E-2,-2.38265E-1,9.923944E-1,1.2843516E-3,3.5719207E-1,-3.8247013E-1,1.0707026E0,1.6990578E-2,9.319833E-2,-1.22219004E-1,3.6706764E-2,-9.041413E-1,1.9254741E-1,1.7831108E-2,2.657625E-1,-6.4697546E-1,1.3167366E0,1.7720478E-2,-6.901663E-1,-1.3324353E-3,2.6274335E-1,-3.2994923E-1,7.643007E-2,3.3515945E-1,1.0337875E-1,-1.13296844E-1,2.3672017E-1,-1.13737345E-1,3.2099828E-2,-2.3815659E-1,1.4446543E-1,3.786942E-1,-3.0027407E-1,-4.7609072E-2,-1.3558576E-1,1.6582547E-1,-2.316773E-1,-7.847381E-3,4.496678E-1,1.0240393E-1,-2.5055942E-1,-1.3655325E-2,1.2975396E-1,-1.5032847E-1,-1.4862314E-1,9.795392E-2],"categories":[],"categories_nodes":[],"categories_segments":[],"categories_sizes":[],"default_left":[0,0,0,0,0,0,0,0,0,0,0,0,0,0,0,0,0,0,0,0,0,0,0,0,0,0,0,0,0,0,0,0,0,0,0,0,0,0,0,0,0,0,0,0,0,0,0,0,0,0,0,0,0,0,0,0,0,0,0,0,0,0,0,0,0,0,0,0,0,0,0,0,0],"id":13,"left_children":[1,3,5,7,9,11,13,15,17,19,21,23,25,27,-1,29,31,33,35,-1,37,-1,39,41,43,45,47,-1,-1,49,51,53,55,57,-1,-1,-1,-1,59,-1,-1,61,63,65,-1,67,-1,69,71,-1,-1,-1,-1,-1,-1,-1,-1,-1,-1,-1,-1,-1,-1,-1,-1,-1,-1,-1,-1,-1,-1,-1,-1],"loss_changes":[2.8745072E0,4.1119366E0,1.67252E0,3.1766243E0,1.7694561E0,2.0050137E0,1.0000038E0,3.1826742E0,1.8601298E0,1.946379E0,7.114501E-1,5.8699193E0,2.4215536E0,2.5274014E-1,0E0,1.825655E0,3.574787E0,8.823824E-1,5.4775524E-1,0E0,1.4663949E0,0E0,2.1152556E-1,2.746019E0,1.8791819E0,5.0905085E-1,2.7660568E0,0E0,0E0,2.4065018E-1,6.193237E-1,4.174672E0,2.9241307E0,3.1869125E-1,0E0,0E0,0E0,0E0,3.720441E-1,0E0,0E0,1.6063812E0,5.091491E-1,2.9330683E-1,0E0,8.603349E-1,0E0,2.1163328E0,2.0158477E0,0E0,0E0,0E0,0E0,0E0,0E0,0E0,0E0,0E0,0E0,0E0,0E0,0E0,0E0,0E0,0E0,0E0,0E0,0E0,0E0,0E0,0E0,0E0,0E0],"parents":[2147483647,0,0,1,1,2,2,3,3,4,4,5,5,6,6,7,7,8,8,9,9,10,10,11,11,12,12,13,13,15,15,16,16,17,17,18,18,20,20,22,22,23,23,24,24,25,25,26,26,29,29,30,30,31,31,32,32,33,33,38,38,41,41,42,42,43,43,45,45,47,47,48,48],"right_children":[2,4,6,8,10,12,14,16,18,20,22,24,26,28,-1,30,32,34,36,-1,38,-1,40,42,44,46,48,-1,-1,50,52,54,56,58,-1,-1,-1,-1,60,-1,-1,62,64,66,-1,68,-1,70,72,-1,-1,-1,-1,-1,-1,-1,-1,-1,-1,-1,-1,-1,-1,-1,-1,-1,-1,-1,-1,-1,-1,-1,-1],"split_conditions":[-4.097539E-2,7.620157E-1,1.2954793E0,8.366132E-2,-3.74358E-1,-7.3884875E-1,1.0419E0,-3.169742E-1,1.8967283E0,-1.2491106E0,-6.261682E-1,-9.526432E-1,-1.0346636E-1,-1.157096E0,5.5584185E-2,4.5311087E-1,-1.25654E-1,1.3317813E0,-3.301352E-1,9.468588E-2,-1.189778E0,-8.482642E-2,-1.0028195E-1,-2.007678E-1,-1.16386846E-1,-3.9783114E-1,5.7519704E-1,-3.736603E-2,-2.38265E-1,-6.9438255E-1,1.3626222E-1,7.3188215E-1,5.3338565E-2,-6.730024E-1,1.6990578E-2,9.319833E-2,-1.22219004E-1,3.6706764E-2,1.1211594E0,1.9254741E-1,1.7831108E-2,2.2782017E-2,-4.951433E-1,3.119095E-1,1.7720478E-2,1.1296941E0,-1.3324353E-3,1.0675361E0,1.1662825E0,7.643007E-2,3.3515945E-1,1.0337875E-1,-1.13296844E-1,2.3672017E-1,-1.13737345E-1,3.2099828E-2,-2.3815659E-1,1.4446543E-1,3.786942E-1,-3.0027407E-1,-4.7609072E-2,-1.3558576E-1,1.6582547E-1,-2.316773E-1,-7.847381E-3,4.496678E-1,1.0240393E-1,-2.5055942E-1,-1.3655325E-2,1.2975396E-1,-1.5032847E-1,-1.4862314E-1,9.795392E-2],"split_indices":[22,21,8,21,10,17,17,2,26,25,20,17,17,25,0,6,25,25,5,0,8,0,7,21,1,24,17,0,0,17,3,18,5,22,0,0,0,0,19,0,0,16,23,19,0,21,0,25,5,0,0,0,0,0,0,0,0,0,0,0,0,0,0,0,0,0,0,0,0,0,0,0,0],"split_type":[0,0,0,0,0,0,0,0,0,0,0,0,0,0,0,0,0,0,0,0,0,0,0,0,0,0,0,0,0,0,0,0,0,0,0,0,0,0,0,0,0,0,0,0,0,0,0,0,0,0,0,0,0,0,0,0,0,0,0,0,0,0,0,0,0,0,0,0,0,0,0,0,0],"sum_hessian":[1.1893751E2,5.5464302E1,6.34732E1,4.2319996E1,1.3144305E1,5.622667E1,7.2465324E0,3.1753418E1,1.0566578E1,9.467182E0,3.6771235E0,1.6664938E1,3.956173E1,6.1722975E0,1.0742352E0,7.4661036E0,2.4287315E1,8.29513E0,2.2714489E0,1.6623306E0,7.804851E0,1.1131914E0,2.5639322E0,1.1391975E1,5.272963E0,9.843309E0,2.9718422E1,1.0821373E0,5.09016E0,4.705879E0,2.760224E0,1.1187285E1,1.310003E1,7.207772E0,1.0873575E0,1.2595514E0,1.0118974E0,1.4455624E0,6.3592887E0,1.4228233E0,1.141109E0,5.586017E0,5.8059587E0,3.5304987E0,1.7424641E0,8.608609E0,1.2347008E0,1.3648761E1,1.606966E1,1.1211118E0,3.5847676E0,1.4957458E0,1.2644783E0,7.0062413E0,4.181044E0,6.3201566E0,6.779873E0,2.6310868E0,4.576685E0,5.3252654E0,1.0340233E0,1.4314288E0,4.154588E0,4.628069E0,1.1778895E0,2.5226738E0,1.007825E0,6.7862635E0,1.8223455E0,1.152172E1,2.1270409E0,1.3030626E1,3.0390341E0],"tree_param":{"num_deleted":"0","num_feature":"31","num_nodes":"73","size_leaf_vector":"1"}},{"base_weights":[-2.7540675E-4,-9.496764E-2,2.8972784E-1,1.1377771E-2,-2.9382786E-1,4.1397408E-1,-1.7385595E-1,1.8721399E-1,-2.4242723E-1,-1.2305613E-1,-7.3329437E-1,-2.4432412E-1,5.0502396E-1,-5.3249526E-1,1.3274993E-1,3.4826592E-1,-3.1559438E-1,-4.061922E-1,3.338543E-1,1.7947352E-1,-4.2807963E-1,3.0793589E-2,-9.2497855E-1,-1.658732E-1,3.7045125E-2,1.7992875E-1,7.889922E-1,-8.6020577E-1,4.9005225E-2,-4.516564E-1,4.502163E-1,2.3558988E-1,-6.8778384E-1,1.022737E-1,-6.229903E-1,6.6881007E-1,-8.2448065E-2,5.421975E-1,-1.3180253E-1,8.830698E-2,-5.5925137E-1,-1.0396364E0,-6.295091E-2,3.418408E-1,-1.3051914E-1,2.5545472E-1,3.2913953E-2,-3.119137E-1,-7.9209894E-2,-1.8545634E-3,-1.9168346E-1,1.6820395E-1,-9.407716E-2,-6.091812E-2,2.4005054E-1,-2.6675066E-1,-3.468885E-2,-1.8619837E-1,1.9289306E-1,-8.028974E-2,-2.9452032E-1,2.635363E-1,1.0037897E-2,-1.0995818E-2,2.0232768E-1,-1.5288678E-1,1.9419654E-1,-2.1399269E-1,4.03397E-2,-1.06126554E-1,-3.514002E-1,-1.3345394E-1,1.5405601E-1],"categories":[],"categories_nodes":[],"categories_segments":[],"categories_sizes":[],"default_left":[0,0,0,0,0,0,0,0,0,0,0,0,0,0,0,0,0,0,0,0,0,0,0,0,0,0,0,0,0,0,0,0,0,0,0,0,0,0,0,0,0,0,0,0,0,0,0,0,0,0,0,0,0,0,0,0,0,0,0,0,0,0,0,0,0,0,0,0,0,0,0,0,0],"id":14,"left_children":[1,3,5,7,9,11,13,15,17,19,21,23,25,27,-1,29,31,33,35,37,39,-1,41,-1,-1,43,45,47,-1,49,51,53,55,57,59,61,-1,63,65,-1,67,69,-1,71,-1,-1,-1,-1,-1,-1,-1,-1,-1,-1,-1,-1,-1,-1,-1,-1,-1,-1,-1,-1,-1,-1,-1,-1,-1,-1,-1,-1,-1],"loss_changes":[3.1465206E0,1.8299906E0,1.6964941E0,2.599959E0,2.1712487E0,1.4743094E0,1.7090576E0,2.8938498E0,2.3876262E0,2.1902483E0,1.4138637E0,4.555981E-1,1.7160134E0,1.2048956E0,0E0,2.3656197E0,1.9806212E0,2.1618185E0,1.3723146E0,1.4492583E0,1.2733197E0,0E0,3.3906364E-1,0E0,0E0,1.2120774E0,3.5027647E-1,8.214474E-2,0E0,2.87764E-1,2.2022495E0,1.2318658E0,5.3630733E-1,2.9588013E0,1.456317E0,5.102482E-1,0E0,4.710456E-1,2.4998674E0,0E0,1.1910007E0,9.181452E-2,0E0,1.4457674E0,0E0,0E0,0E0,0E0,0E0,0E0,0E0,0E0,0E0,0E0,0E0,0E0,0E0,0E0,0E0,0E0,0E0,0E0,0E0,0E0,0E0,0E0,0E0,0E0,0E0,0E0,0E0,0E0,0E0],"parents":[2147483647,0,0,1,1,2,2,3,3,4,4,5,5,6,6,7,7,8,8,9,9,10,10,11,11,12,12,13,13,15,15,16,16,17,17,18,18,19,19,20,20,22,22,25,25,26,26,27,27,29,29,30,30,31,31,32,32,33,33,34,34,35,35,37,37,38,38,40,40,41,41,43,43],"right_children":[2,4,6,8,10,12,14,16,18,20,22,24,26,28,-1,30,32,34,36,38,40,-1,42,-1,-1,44,46,48,-1,50,52,54,56,58,60,62,-1,64,66,-1,68,70,-1,72,-1,-1,-1,-1,-1,-1,-1,-1,-1,-1,-1,-1,-1,-1,-1,-1,-1,-1,-1,-1,-1,-1,-1,-1,-1,-1,-1,-1,-1],"split_conditions":[-4.951433E-1,4.5962664E-1,9.538469E-1,2.8284535E-1,8.763424E-1,-1.3596284E0,5.2318925E-1,1.4641902E0,-3.9783114E-1,4.512378E-2,-1.0684015E0,-2.4313197E-1,-3.0259657E-1,-9.319314E-3,1.3274993E-1,-1.1596757E0,-3.2219523E-1,-8.866899E-1,-1.7430219E-1,-4.250984E-1,-1.5020355E0,3.0793589E-2,1.0350826E0,-1.658732E-1,3.7045125E-2,1.0802633E0,1.2140455E0,-8.729703E-2,4.9005225E-2,-2.4225524E-1,1.3218561E0,-5.72793E-1,6.661931E-1,-7.218736E-1,3.7160727E-1,-2.6543525E-1,-8.2448065E-2,-1.4146429E0,-3.9783114E-1,8.830698E-2,1.1890656E0,-7.0426875E-1,-6.295091E-2,-1.3857504E0,-1.3051914E-1,2.5545472E-1,3.2913953E-2,-3.119137E-1,-7.9209894E-2,-1.8545634E-3,-1.9168346E-1,1.6820395E-1,-9.407716E-2,-6.091812E-2,2.4005054E-1,-2.6675066E-1,-3.468885E-2,-1.8619837E-1,1.9289306E-1,-8.028974E-2,-2.9452032E-1,2.635363E-1,1.0037897E-2,-1.0995818E-2,2.0232768E-1,-1.5288678E-1,1.9419654E-1,-2.1399269E-1,4.03397E-2,-1.06126554E-1,-3.514002E-1,-1.3345394E-1,1.5405601E-1],"split_indices":[23,3,5,5,15,3,3,30,24,25,0,8,2,6,0,18,25,19,0,22,7,0,6,0,0,21,11,15,0,22,17,25,16,3,6,15,0,22,24,0,7,20,0,0,0,0,0,0,0,0,0,0,0,0,0,0,0,0,0,0,0,0,0,0,0,0,0,0,0,0,0,0,0],"split_type":[0,0,0,0,0,0,0,0,0,0,0,0,0,0,0,0,0,0,0,0,0,0,0,0,0,0,0,0,0,0,0,0,0,0,0,0,0,0,0,0,0,0,0,0,0,0,0,0,0,0,0,0,0,0,0,0,0,0,0,0,0,0,0,0,0,0,0,0,0,0,0,0,0],"sum_hessian":[1.1257924E2,8.537501E1,2.7204231E1,5.6241344E1,2.9133663E1,2.1538624E1,5.6656075E0,3.337884E1,2.2862505E1,2.190258E1,7.2310834E0,2.4125168E0,1.9126106E1,3.667598E0,1.9980093E0,2.5513956E1,7.864885E0,1.8033094E1,4.8294106E0,1.1202891E1,1.0699689E1,1.4354701E0,5.7956133E0,1.0382107E0,1.3743062E0,9.678966E0,9.447142E0,2.3327718E0,1.3348264E0,2.4964182E0,2.3017538E1,3.3180785E0,4.546806E0,5.5484147E0,1.248468E1,3.0514302E0,1.7779802E0,4.831261E0,6.37163E0,1.453023E0,9.246666E0,4.6037517E0,1.1918617E0,8.013394E0,1.6655707E0,8.4186945E0,1.0284468E0,1.2211173E0,1.1116544E0,1.0446576E0,1.4517608E0,2.0341627E1,2.675912E0,2.2276416E0,1.090437E0,2.9532568E0,1.5935491E0,2.3108573E0,3.2375574E0,7.149093E0,5.3355865E0,2.0066676E0,1.0447626E0,1.0328029E0,3.798458E0,4.5238075E0,1.8478228E0,7.5432525E0,1.7034136E0,1.3353513E0,3.2684002E0,1.1504638E0,6.862931E0],"tree_param":{"num_deleted":"0","num_feature":"31","num_nodes":"73","size_leaf_vector":"1"}},{"base_weights":[-1.0379031E-2,-8.221764E-2,3.0833864E-1,5.3515602E-2,-2.4180977E-1,4.1847026E-1,-3.569753E-1,1.3127871E-1,-5.9306866E-1,-6.775153E-2,-4.4769102E-1,6.4316684E-1,1.8647894E-1,-1.8488203E-1,3.9457142E-2,-3.487437E-2,4.4982132E-1,4.764763E-3,-3.6125308E-1,-1.8437561E-1,2.807418E-1,-6.703792E-1,-6.50545E-2,2.626811E-1,1.8365687E-1,4.5421538E-1,-1.7077038E-1,1.5883598E-1,-3.8299772E-1,6.499133E-1,-4.2699814E-1,1.5725715E-1,-1.759873E-1,2.2942077E-1,-3.9256576E-1,-8.7219745E-1,1.670461E-1,3.3780238E-1,-3.618262E-1,-9.34164E-2,1.4796163E-1,6.504755E-1,-7.682528E-2,-5.441743E-1,2.56236E-1,1.6166463E-1,-4.230808E-2,-1.924136E-1,1.614765E-2,2.4651499E-1,-3.9058723E-2,-1.7168988E-2,-1.6684636E-1,1.6669649E-1,-1.8607596E-1,4.1441186E-3,-2.3397136E-1,-2.805943E-1,-5.6146022E-2,1.9382389E-1,-1.1125203E-1,2.3522173E-1,-7.565823E-2,-2.259316E-1,6.0279973E-2,5.828094E-2,2.3721945E-1,-4.387952E-2,-2.0190372E-1,1.1676789E-1,-2.2020428E-3],"categories":[],"categories_nodes":[],"categories_segments":[],"categories_sizes":[],"default_left":[0,0,0,0,0,0,0,0,0,0,0,0,0,0,0,0,0,0,0,0,0,0,0,0,0,0,0,0,0,0,0,0,0,0,0,0,0,0,0,0,0,0,0,0,0,0,0,0,0,0,0,0,0,0,0,0,0,0,0,0,0,0,0,0,0,0,0,0,0,0,0],"id":15,"left_children":[1,3,5,7,9,11,13,15,17,19,21,23,25,-1,-1,27,29,31,-1,33,-1,35,37,-1,39,41,43,45,47,49,51,-1,-1,53,55,57,59,61,63,-1,-1,65,-1,67,69,-1,-1,-1,-1,-1,-1,-1,-1,-1,-1,-1,-1,-1,-1,-1,-1,-1,-1,-1,-1,-1,-1,-1,-1,-1,-1],"loss_changes":[2.5110676E0,1.9491875E0,1.6279979E0,2.5477183E0,1.4483383E0,8.065851E-1,5.124386E-1,2.3797693E0,1.9985834E0,2.9273834E0,1.551928E0,7.5993896E-1,1.0487283E0,0E0,0E0,2.1029875E0,2.9765055E0,1.4604778E0,0E0,1.9786639E0,0E0,2.1279855E0,1.0782111E0,0E0,7.9125077E-1,1.01374E0,9.488431E-1,2.3738725E0,1.2895646E0,1.8388467E0,1.3350075E-1,0E0,0E0,2.5536127E0,2.3645682E0,2.4055433E-1,1.0427353E0,1.2269666E0,1.2714841E0,0E0,0E0,1.6912317E-1,0E0,5.6809843E-2,1.09701365E-1,0E0,0E0,0E0,0E0,0E0,0E0,0E0,0E0,0E0,0E0,0E0,0E0,0E0,0E0,0E0,0E0,0E0,0E0,0E0,0E0,0E0,0E0,0E0,0E0,0E0,0E0],"parents":[2147483647,0,0,1,1,2,2,3,3,4,4,5,5,6,6,7,7,8,8,9,9,10,10,11,11,12,12,15,15,16,16,17,17,19,19,21,21,22,22,24,24,25,25,26,26,27,27,28,28,29,29,30,30,33,33,34,34,35,35,36,36,37,37,38,38,41,41,43,43,44,44],"right_children":[2,4,6,8,10,12,14,16,18,20,22,24,26,-1,-1,28,30,32,-1,34,-1,36,38,-1,40,42,44,46,48,50,52,-1,-1,54,56,58,60,62,64,-1,-1,66,-1,68,70,-1,-1,-1,-1,-1,-1,-1,-1,-1,-1,-1,-1,-1,-1,-1,-1,-1,-1,-1,-1,-1,-1,-1,-1,-1,-1],"split_conditions":[-3.9783114E-1,5.6283765E-2,1.05489E0,1.4564995E0,9.8751396E-1,1.1893168E-1,7.634484E-1,-6.265603E-1,3.2171592E-1,-9.925628E-1,-4.951433E-1,6.8814725E-1,4.931251E-2,-1.8488203E-1,3.9457142E-2,6.296798E-1,9.531201E-1,-3.2219523E-1,-3.6125308E-1,-7.7992326E-1,2.807418E-1,1.4112198E0,-5.892742E-1,2.626811E-1,-9.925628E-1,1.072694E0,-5.3170556E-1,-1.0603646E-1,3.3817968E-1,9.497449E-1,-4.2538133E-1,1.5725715E-1,-1.759873E-1,7.730374E-1,3.870855E-3,1.1456851E0,-1.009365E0,-5.755688E-1,-2.1978179E-1,-9.34164E-2,1.4796163E-1,-1.682782E-1,-7.682528E-2,-1.5157421E-1,3.503668E-1,1.6166463E-1,-4.230808E-2,-1.924136E-1,1.614765E-2,2.4651499E-1,-3.9058723E-2,-1.7168988E-2,-1.6684636E-1,1.6669649E-1,-1.8607596E-1,4.1441186E-3,-2.3397136E-1,-2.805943E-1,-5.6146022E-2,1.9382389E-1,-1.1125203E-1,2.3522173E-1,-7.565823E-2,-2.259316E-1,6.0279973E-2,5.828094E-2,2.3721945E-1,-4.387952E-2,-2.0190372E-1,1.1676789E-1,-2.2020428E-3],"split_indices":[24,22,21,0,1,25,0,4,19,1,23,22,7,0,0,18,25,25,0,17,0,21,20,0,1,3,15,25,8,21,19,0,0,19,16,3,16,0,19,0,0,6,0,19,15,0,0,0,0,0,0,0,0,0,0,0,0,0,0,0,0,0,0,0,0,0,0,0,0,0,0],"split_type":[0,0,0,0,0,0,0,0,0,0,0,0,0,0,0,0,0,0,0,0,0,0,0,0,0,0,0,0,0,0,0,0,0,0,0,0,0,0,0,0,0,0,0,0,0,0,0,0,0,0,0,0,0,0,0,0,0,0,0,0,0,0,0,0,0,0,0,0,0,0,0],"sum_hessian":[1.0756443E2,8.838466E1,1.9179768E1,4.8121746E1,4.0262913E1,1.677411E1,2.4056566E0,4.366699E1,4.4547563E0,2.253783E1,1.7725082E1,7.620682E0,9.15343E0,1.4006293E0,1.0050273E0,2.928325E1,1.438374E1,2.753385E0,1.7013713E0,2.0922672E1,1.6151595E0,1.0728987E1,6.9960957E0,4.459426E0,3.1612556E0,5.0770607E0,4.0763693E0,1.9163574E1,1.0119676E1,1.1921917E1,2.4618232E0,1.5263757E0,1.2270095E0,6.969063E0,1.39536085E1,8.611989E0,2.1169984E0,2.90899E0,4.0871058E0,1.2139331E0,1.9473224E0,4.043924E0,1.0331371E0,2.0282943E0,2.048075E0,8.10024E0,1.1063334E1,6.064339E0,4.055336E0,9.726514E0,2.1954033E0,1.0108675E0,1.4509557E0,5.28566E0,1.6834034E0,7.280037E0,6.6735716E0,7.550945E0,1.0610442E0,1.013365E0,1.1036334E0,1.4689445E0,1.4400455E0,2.2113483E0,1.8757573E0,1.5117657E0,2.5321581E0,1.0183719E0,1.0099224E0,1.0443988E0,1.003676E0],"tree_param":{"num_deleted":"0","num_feature":"31","num_nodes":"71","size_leaf_vector":"1"}},{"base_weights":[-1.226534E-2,1.2858008E-1,-1.3596582E-1,2.3019202E-1,-4.1343498E-1,-3.6976237E-2,-3.5261688E-1,1.1884015E-1,6.625608E-1,-6.6530675E-1,1.9694818E-2,2.0721023E-1,-8.319319E-2,-4.9421594E-1,1.8519025E-1,4.288632E-1,-1.06714934E-1,8.497601E-1,-2.8796984E-2,-3.345408E-2,-2.3715113E-1,1.2299277E-1,-1.1644348E-1,-1.6174674E-1,3.234021E-1,4.7116984E-2,-6.038552E-1,5.7200795E-1,-1.3428915E-1,6.864894E-1,-1.331054E-1,1.3242666E-1,-4.2402953E-1,1.1049675E0,3.6316085E-1,-4.1492756E-2,-4.8732662E-1,-1.3940398E-1,6.632744E-1,-7.478575E-1,-1.5128471E-1,2.445067E-1,1.411291E-2,-7.534224E-2,2.4922736E-1,-2.9540545E-1,1.0698963E-1,-8.366682E-2,1.070772E-1,-2.2206265E-1,-3.8070146E-3,8.914164E-2,3.8920575E-1,2.0382766E-1,-6.860082E-2,-3.5761766E-2,2.657533E-1,4.073159E-2,-2.0082563E-1,2.8735662E-1,4.0979264E-3,-2.5252372E-1,-7.7915125E-2,8.0825254E-2,-1.2770587E-1],"categories":[],"categories_nodes":[],"categories_segments":[],"categories_sizes":[],"default_left":[0,0,0,0,0,0,0,0,0,0,0,0,0,0,0,0,0,0,0,0,0,0,0,0,0,0,0,0,0,0,0,0,0,0,0,0,0,0,0,0,0,0,0,0,0,0,0,0,0,0,0,0,0,0,0,0,0,0,0,0,0,0,0,0,0],"id":16,"left_children":[1,3,5,7,9,11,13,15,17,19,21,-1,23,25,27,29,31,33,-1,-1,-1,-1,-1,35,37,-1,39,41,-1,43,45,47,49,51,53,55,57,-1,59,61,63,-1,-1,-1,-1,-1,-1,-1,-1,-1,-1,-1,-1,-1,-1,-1,-1,-1,-1,-1,-1,-1,-1,-1,-1],"loss_changes":[1.7910355E0,2.745016E0,1.1596954E0,1.9029012E0,8.8077307E-1,1.357316E0,1.3885715E0,2.4197254E0,1.2475026E0,2.6251984E-1,7.7921736E-1,0E0,1.2415693E0,1.0770109E0,1.3030455E0,2.1901667E0,1.6081402E0,4.2914343E-1,0E0,0E0,0E0,0E0,0E0,1.2276586E0,2.012339E0,0E0,6.675725E-1,3.5631824E-1,0E0,1.5751734E0,2.6008964E0,1.2468405E0,1.164702E0,2.2014284E-1,8.647844E-1,1.8617531E0,1.0557446E0,0E0,9.164107E-1,1.862607E-1,5.932159E-1,0E0,0E0,0E0,0E0,0E0,0E0,0E0,0E0,0E0,0E0,0E0,0E0,0E0,0E0,0E0,0E0,0E0,0E0,0E0,0E0,0E0,0E0,0E0,0E0],"parents":[2147483647,0,0,1,1,2,2,3,3,4,4,5,5,6,6,7,7,8,8,9,9,10,10,12,12,13,13,14,14,15,15,16,16,17,17,23,23,24,24,26,26,27,27,29,29,30,30,31,31,32,32,33,33,34,34,35,35,36,36,38,38,39,39,40,40],"right_children":[2,4,6,8,10,12,14,16,18,20,22,-1,24,26,28,30,32,34,-1,-1,-1,-1,-1,36,38,-1,40,42,-1,44,46,48,50,52,54,56,58,-1,60,62,64,-1,-1,-1,-1,-1,-1,-1,-1,-1,-1,-1,-1,-1,-1,-1,-1,-1,-1,-1,-1,-1,-1,-1,-1],"split_conditions":[-4.097539E-2,1.075281E0,5.637821E-1,1.1211594E0,-3.0259657E-1,-1.5945954E0,-3.1561232E-1,-1.702009E-1,8.768839E-1,-1.3179085E0,-6.654807E-1,2.0721023E-1,1.1536468E0,-1.4012889E0,-5.3908783E-1,8.77096E-1,7.888335E-1,-1.5948504E-1,-2.8796984E-2,-3.345408E-2,-2.3715113E-1,1.2299277E-1,-1.1644348E-1,1.4751298E0,4.6510044E-1,4.7116984E-2,-4.951433E-1,-7.9912484E-1,-1.3428915E-1,-1.4400707E0,9.672525E-1,-3.3058274E-1,6.738726E-1,2.7805966E-1,1.07538484E-1,-6.265603E-1,-3.2747367E-1,-1.3940398E-1,1.4563681E0,7.135161E-1,-1.4866304E-1,2.445067E-1,1.411291E-2,-7.534224E-2,2.4922736E-1,-2.9540545E-1,1.0698963E-1,-8.366682E-2,1.070772E-1,-2.2206265E-1,-3.8070146E-3,8.914164E-2,3.8920575E-1,2.0382766E-1,-6.860082E-2,-3.5761766E-2,2.657533E-1,4.073159E-2,-2.0082563E-1,2.8735662E-1,4.0979264E-3,-2.5252372E-1,-7.7915125E-2,8.0825254E-2,-1.2770587E-1],"split_indices":[22,21,0,19,2,19,14,25,3,0,15,0,17,8,19,20,2,8,0,0,0,0,0,4,22,0,23,17,0,8,20,8,25,25,25,4,2,0,17,3,25,0,0,0,0,0,0,0,0,0,0,0,0,0,0,0,0,0,0,0,0,0,0,0,0],"split_type":[0,0,0,0,0,0,0,0,0,0,0,0,0,0,0,0,0,0,0,0,0,0,0,0,0,0,0,0,0,0,0,0,0,0,0,0,0,0,0,0,0,0,0,0,0,0,0,0,0,0,0,0,0,0,0,0,0,0,0,0,0,0,0,0,0],"sum_hessian":[1.00795845E2,4.7113243E1,5.3682602E1,4.0159767E1,6.9534764E0,3.765047E1,1.603213E1,3.2948975E1,7.2107916E0,4.057773E0,2.8957033E0,1.4157062E0,3.6234764E1,1.2754939E1,3.27719E0,1.3496632E1,1.9452343E1,5.6870646E0,1.5237268E0,1.0968225E0,2.9609506E0,1.477028E0,1.4186754E0,3.087245E1,5.362315E0,1.7755337E0,1.0979405E1,2.0935721E0,1.1836181E0,9.102257E0,4.394375E0,1.14248E1,8.027544E0,2.8969188E0,2.7901459E0,2.3368618E1,7.5038323E0,1.5051094E0,3.8572056E0,7.834195E0,3.1452105E0,1.0534068E0,1.0401652E0,1.1149809E0,7.9872756E0,1.2354594E0,3.1589153E0,3.948399E0,7.476401E0,4.0867352E0,3.9408085E0,1.046624E0,1.8502948E0,1.7219535E0,1.0681924E0,2.2365765E1,1.0028526E0,1.7545023E0,5.74933E0,2.327332E0,1.5298737E0,5.9629064E0,1.8712885E0,1.2487842E0,1.8964262E0],"tree_param":{"num_deleted":"0","num_feature":"31","num_nodes":"65","size_leaf_vector":"1"}},{"base_weights":[-5.7662884E-3,-7.458102E-2,2.9758576E-1,-6.134067E-1,-3.474808E-2,3.913687E-1,-2.847581E-1,-1.606536E-2,-2.2009708E-1,9.5897235E-2,-2.0369579E-1,6.6822034E-1,2.2256854E-1,3.9759472E-2,-1.6449349E-1,-4.930309E-2,3.8894898E-1,4.8209178E-1,-2.8222936E-1,2.4570584E-1,3.631226E-2,5.6119204E-1,-6.320717E-2,-1.6681887E-1,3.6870793E-1,1.921647E-1,8.579422E-3,-1.9597565E-1,-8.876143E-1,6.3223178E-3,2.331328E-1,-2.7340522E-1,1.68643E-1,2.6233226E-2,-1.3872938E-1,1.8604478E-1,-1.3429536E-1,-9.7156726E-2,3.3259034E-2,-3.3339566E-1,-4.9496133E-2,-1.5696022E-1,8.23659E-2],"categories":[],"categories_nodes":[],"categories_segments":[],"categories_sizes":[],"default_left":[0,0,0,0,0,0,0,0,0,0,0,0,0,0,0,0,0,0,0,0,0,0,0,0,0,0,0,0,0,0,0,0,0,0,0,0,0,0,0,0,0,0,0],"id":17,"left_children":[1,3,5,7,9,11,13,-1,-1,15,17,19,21,-1,-1,23,-1,25,27,-1,-1,29,31,33,35,-1,-1,37,39,-1,-1,41,-1,-1,-1,-1,-1,-1,-1,-1,-1,-1,-1],"loss_changes":[2.0469952E0,1.6927379E0,1.1018815E0,3.2676554E-1,1.6842978E0,6.0090995E-1,4.1297486E-1,0E0,0E0,7.5971346E0,1.9246876E0,3.6099958E-1,1.1448963E0,0E0,0E0,2.0025525E0,0E0,2.5342554E-1,1.4149432E0,0E0,0E0,6.073477E-1,1.0890985E0,2.4104562E0,2.121407E0,0E0,0E0,1.1313454E0,3.842833E-1,0E0,0E0,9.6474206E-1,0E0,0E0,0E0,0E0,0E0,0E0,0E0,0E0,0E0,0E0,0E0],"parents":[2147483647,0,0,1,1,2,2,3,3,4,4,5,5,6,6,9,9,10,10,11,11,12,12,15,15,17,17,18,18,21,21,22,22,23,23,24,24,27,27,28,28,31,31],"right_children":[2,4,6,8,10,12,14,-1,-1,16,18,20,22,-1,-1,24,-1,26,28,-1,-1,30,32,34,36,-1,-1,38,40,-1,-1,42,-1,-1,-1,-1,-1,-1,-1,-1,-1,-1,-1],"split_conditions":[-3.9783114E-1,-1.4695954E0,1.05489E0,-1.0901774E0,9.8751396E-1,-1.4866304E-1,-7.5314425E-2,-1.606536E-2,-2.2009708E-1,-9.925628E-1,-1.4143165E0,9.183417E-1,-1.2625852E-3,3.9759472E-2,-1.6449349E-1,1.010139E0,3.8894898E-1,6.344555E-2,1.5677572E0,2.4570584E-1,3.631226E-2,-1.0819697E0,-4.951433E-1,-2.4868217E-1,8.807168E-1,1.921647E-1,8.579422E-3,6.339241E-1,-3.0259657E-1,6.3223178E-3,2.331328E-1,1.2215451E0,1.68643E-1,2.6233226E-2,-1.3872938E-1,1.8604478E-1,-1.3429536E-1,-9.7156726E-2,3.3259034E-2,-3.3339566E-1,-4.9496133E-2,-1.5696022E-1,8.23659E-2],"split_indices":[24,16,21,25,1,25,22,0,0,1,25,16,22,0,0,7,0,15,0,0,0,15,23,7,21,0,0,19,2,0,0,22,0,0,0,0,0,0,0,0,0,0,0],"split_type":[0,0,0,0,0,0,0,0,0,0,0,0,0,0,0,0,0,0,0,0,0,0,0,0,0,0,0,0,0,0,0,0,0,0,0,0,0,0,0,0,0,0,0],"sum_hessian":[9.599602E1,7.886077E1,1.7135244E1,4.437301E0,7.442348E1,1.5040936E1,2.0943084E0,1.0401143E0,3.3971868E0,4.2213017E1,3.2210457E1,4.576425E0,1.0464512E1,1.0031447E0,1.0911636E0,3.8514065E1,3.6989517E0,2.7816107E0,2.9428844E1,3.1982155E0,1.3782097E0,4.348319E0,6.116193E0,3.053161E1,7.982455E0,1.7556763E0,1.0259343E0,2.6917437E1,2.5114076E0,1.55531E0,2.793009E0,4.998763E0,1.1174293E0,1.6792334E1,1.3739277E1,6.2865295E0,1.695925E0,1.8960068E1,7.9573693E0,1.506998E0,1.0044097E0,3.4645667E0,1.5341966E0],"tree_param":{"num_deleted":"0","num_feature":"31","num_nodes":"43","size_leaf_vector":"1"}},{"base_weights":[7.727859E-4,-8.205595E-2,2.509785E-1,-3.7818143E-1,-2.1348642E-2,6.43356E-1,9.1540605E-2,1.2486487E-1,-7.2617924E-1,4.714555E-1,-1.1687761E-1,7.3412955E-1,3.249611E-2,-1.7414331E-1,1.6798873E-1,4.0600565E-1,-1.5870807E-1,-8.586269E-1,1.2000473E-2,-6.342432E-2,6.495817E-1,1.2317777E-2,-3.4446657E-1,2.4099372E-1,6.3926466E-2,2.6654586E-1,-1.1719252E-1,1.9935979E-1,7.1737785E-3,-2.8073186E-1,-8.3235815E-2,1.8937482E-1,8.815453E-1,-1.5577108E-1,3.149934E-1,-4.6428388E-1,2.4696417E-1,5.6121206E-1,1.8936783E-2,-6.737465E-2,1.3201872E-1,3.090793E-1,6.0108423E-2,1.1998233E-1,-1.2345598E-1,1.2743632E-1,-1.3729082E-1,8.02693E-2,-1.7344981E-1,1.8177772E-1,-5.3528074E-2,3.425012E-2,2.3623195E-1,9.473798E-2,-1.0333157E-1],"categories":[],"categories_nodes":[],"categories_segments":[],"categories_sizes":[],"default_left":[0,0,0,0,0,0,0,0,0,0,0,0,0,0,0,0,0,0,0,0,0,0,0,0,0,0,0,0,0,0,0,0,0,0,0,0,0,0,0,0,0,0,0,0,0,0,0,0,0,0,0,0,0,0,0],"id":18,"left_children":[1,3,5,7,9,11,13,15,17,19,21,23,-1,-1,25,27,-1,29,-1,-1,31,33,35,-1,-1,37,-1,-1,-1,-1,-1,39,41,43,45,47,49,51,53,-1,-1,-1,-1,-1,-1,-1,-1,-1,-1,-1,-1,-1,-1,-1,-1],"loss_changes":[1.9547553E0,1.2659634E0,1.408639E0,2.1908984E0,2.873759E0,2.4160075E-1,1.0143504E0,1.2735034E0,7.6887083E-1,1.3440199E0,1.5024318E0,2.6353836E-2,0E0,0E0,1.0290208E0,4.378339E-1,0E0,1.9058228E-2,0E0,0E0,6.9919324E-1,1.7517852E0,1.4245815E0,0E0,0E0,1.07461E0,0E0,0E0,0E0,0E0,0E0,5.131639E-1,3.1235003E-1,3.3178651E0,1.2361755E0,1.46473E0,6.8329746E-1,5.9343433E-1,1.0922558E0,0E0,0E0,0E0,0E0,0E0,0E0,0E0,0E0,0E0,0E0,0E0,0E0,0E0,0E0,0E0,0E0],"parents":[2147483647,0,0,1,1,2,2,3,3,4,4,5,5,6,6,7,7,8,8,9,9,10,10,11,11,14,14,15,15,17,17,20,20,21,21,22,22,25,25,31,31,32,32,33,33,34,34,35,35,36,36,37,37,38,38],"right_children":[2,4,6,8,10,12,14,16,18,20,22,24,-1,-1,26,28,-1,30,-1,-1,32,34,36,-1,-1,38,-1,-1,-1,-1,-1,40,42,44,46,48,50,52,54,-1,-1,-1,-1,-1,-1,-1,-1,-1,-1,-1,-1,-1,-1,-1,-1],"split_conditions":[-4.951433E-1,-1.1721923E0,-3.261373E-1,-1.0603646E-1,-7.675104E-1,1.075281E0,-2.714644E-1,9.3068266E-1,1.351247E0,-7.745688E-1,5.4965246E-1,3.1503916E-1,3.249611E-2,-1.7414331E-1,1.1476558E0,-9.238148E-2,-1.5870807E-1,-3.3555847E-1,1.2000473E-2,-6.342432E-2,-2.735724E-1,5.213946E-1,1.2232525E0,2.4099372E-1,6.3926466E-2,1.2937663E-2,-1.1719252E-1,1.9935979E-1,7.1737785E-3,-2.8073186E-1,-8.3235815E-2,-1.4932564E-1,3.6498183E-1,-7.8111744E-1,1.2831371E0,-1.5020355E0,-8.2564634E-1,-7.505588E-1,4.931251E-2,-6.737465E-2,1.3201872E-1,3.090793E-1,6.0108423E-2,1.1998233E-1,-1.2345598E-1,1.2743632E-1,-1.3729082E-1,8.02693E-2,-1.7344981E-1,1.8177772E-1,-5.3528074E-2,3.425012E-2,2.3623195E-1,9.473798E-2,-1.0333157E-1],"split_indices":[23,17,22,25,17,21,22,21,7,8,6,26,0,0,21,22,0,28,0,0,5,7,15,0,0,25,0,0,0,0,0,15,0,15,18,7,18,7,7,0,0,0,0,0,0,0,0,0,0,0,0,0,0,0,0],"split_type":[0,0,0,0,0,0,0,0,0,0,0,0,0,0,0,0,0,0,0,0,0,0,0,0,0,0,0,0,0,0,0,0,0,0,0,0,0,0,0,0,0,0,0,0,0,0,0,0,0,0,0,0,0,0,0],"sum_hessian":[9.232854E1,6.9870476E1,2.2458055E1,1.0997236E1,5.887324E1,5.611925E0,1.684613E1,4.759033E0,6.238203E0,8.920411E0,4.995283E1,4.479778E0,1.1321472E0,1.047242E0,1.5798888E1,3.5932212E0,1.1658121E0,5.215888E0,1.0223153E0,1.8068266E0,7.1135845E0,3.2467747E1,1.7485083E1,3.476439E0,1.0033387E0,1.3874006E1,1.924882E0,1.7022654E0,1.8909557E0,4.066017E0,1.149871E0,2.9926605E0,4.120924E0,2.1187029E1,1.1280719E1,1.4718301E1,2.7667825E0,5.7567205E0,8.117286E0,1.168035E0,1.8246255E0,2.9618247E0,1.1590993E0,6.4998384E0,1.468719E1,1.027132E1,1.0093986E0,1.8001828E0,1.2918118E1,1.2703853E0,1.4963971E0,2.4399102E0,3.3168104E0,4.539623E0,3.577663E0],"tree_param":{"num_deleted":"0","num_feature":"31","num_nodes":"55","size_leaf_vector":"1"}},{"base_weights":[4.7311164E-3,-5.5503104E-2,2.839021E-1,-8.236766E-3,-4.0704545E-1,3.6975184E-1,-7.012923E-2,9.905861E-2,-1.5190925E-1,-5.592052E-1,6.4085685E-2,4.785549E-1,3.0825958E-2,-2.1162141E-2,3.445593E-1,-5.9889004E-2,-5.881158E-1,-1.912699E-1,-2.2610399E-1,5.6530064E-1,-4.8772402E-2,3.8601264E-1,-1.3599506E-1,-8.5400045E-2,4.5085204E-1,2.4252553E-2,-6.46887E-1,-2.1865435E-1,-6.987427E-3,-1.2759945E-1,5.249251E-2,-4.4242054E-2,6.6718584E-1,1.6768715E-1,7.757581E-3,-7.496161E-2,6.271365E-2,2.2863503E-1,-5.0759103E-2,3.4233738E-2,-1.7149565E-1,-1.4010113E-2,-2.7196237E-1,2.2628035E-1,7.834668E-2],"categories":[],"categories_nodes":[],"categories_segments":[],"categories_sizes":[],"default_left":[0,0,0,0,0,0,0,0,0,0,0,0,0,0,0,0,0,0,0,0,0,0,0,0,0,0,0,0,0,0,0,0,0,0,0,0,0,0,0,0,0,0,0,0,0],"id":19,"left_children":[1,3,5,7,9,11,-1,13,15,17,-1,19,21,23,-1,25,27,29,-1,31,-1,33,-1,35,37,39,41,-1,-1,-1,-1,-1,43,-1,-1,-1,-1,-1,-1,-1,-1,-1,-1,-1,-1],"loss_changes":[1.5235687E0,1.2360501E0,8.009099E-1,1.0443444E0,9.523916E-1,5.080483E-1,0E0,4.9233913E0,1.1264628E0,3.8245606E-1,0E0,6.8493605E-1,9.512289E-1,1.1246309E0,0E0,1.2510858E0,3.7476945E-1,4.074565E-1,0E0,7.966943E-1,0E0,1.8136916E-1,0E0,1.6198753E0,9.878413E-1,1.2883011E0,4.5199168E-1,0E0,0E0,0E0,0E0,0E0,1.0688901E-1,0E0,0E0,0E0,0E0,0E0,0E0,0E0,0E0,0E0,0E0,0E0,0E0],"parents":[2147483647,0,0,1,1,2,2,3,3,4,4,5,5,7,7,8,8,9,9,11,11,12,12,13,13,15,15,16,16,17,17,19,19,21,21,23,23,24,24,25,25,26,26,32,32],"right_children":[2,4,6,8,10,12,-1,14,16,18,-1,20,22,24,-1,26,28,30,-1,32,-1,34,-1,36,38,40,42,-1,-1,-1,-1,-1,44,-1,-1,-1,-1,-1,-1,-1,-1,-1,-1,-1,-1],"split_conditions":[-3.9783114E-1,1.202347E0,1.05489E0,9.8751396E-1,1.2953559E0,7.221601E-1,-7.012923E-2,-9.925628E-1,1.1223828E0,-3.2624158E-1,6.4085685E-2,1.5028446E0,6.040075E-1,-1.17520586E-1,3.445593E-1,1.5677572E0,-4.951433E-1,-4.951433E-1,-2.2610399E-1,-1.426243E0,-4.8772402E-2,2.5413412E-1,-1.3599506E-1,4.1627905E-1,-5.227406E-1,3.1303346E0,-4.5837995E-2,-2.1865435E-1,-6.987427E-3,-1.2759945E-1,5.249251E-2,-4.4242054E-2,8.456856E-1,1.6768715E-1,7.757581E-3,-7.496161E-2,6.271365E-2,2.2863503E-1,-5.0759103E-2,3.4233738E-2,-1.7149565E-1,-1.4010113E-2,-2.7196237E-1,2.2628035E-1,7.834668E-2],"split_indices":[24,22,21,1,25,15,0,1,25,25,0,17,22,13,0,0,23,23,0,17,0,25,0,15,21,13,5,0,0,0,0,0,25,0,0,0,0,0,0,0,0,0,0,0,0],"split_type":[0,0,0,0,0,0,0,0,0,0,0,0,0,0,0,0,0,0,0,0,0,0,0,0,0,0,0,0,0,0,0,0,0,0,0,0,0,0,0,0,0,0,0,0,0],"sum_hessian":[8.866716E1,7.35904E1,1.5076755E1,6.577069E1,7.8197136E0,1.3177184E1,1.8995706E0,3.7829754E1,2.7940937E1,6.359632E0,1.4600816E0,9.663123E0,3.5140617E0,3.482075E1,3.009004E0,2.401263E1,3.9283059E0,2.8849638E0,3.474668E0,8.615683E0,1.0474398E0,2.1438992E0,1.3701625E0,3.137051E1,3.450239E0,2.1840631E1,2.1719992E0,2.9122825E0,1.0160235E0,1.6616791E0,1.2232845E0,1.0215586E0,7.5941243E0,1.0754689E0,1.0684303E0,2.0224724E1,1.1145786E1,2.1445508E0,1.3056881E0,1.9681282E1,2.1593485E0,1.0121912E0,1.1598082E0,5.5468235E0,2.0473008E0],"tree_param":{"num_deleted":"0","num_feature":"31","num_nodes":"45","size_leaf_vector":"1"}},{"base_weights":[1.4532286E-3,-6.890466E-2,2.2075787E-1,5.588708E-2,-1.8312548E-1,5.836204E-1,7.949519E-2,2.1426125E-1,-2.043673E-1,-2.5206012E-1,2.5334704E-1,2.6811795E-2,6.9392437E-1,4.048547E-1,-7.1041815E-2,3.6695704E-1,-2.8329912E-1,2.3661453E-1,-4.2715684E-1,-7.914277E-2,-5.159035E-1,5.686321E-1,-1.426087E-1,7.073145E-2,2.4097402E-1,-5.809362E-2,2.1845923E-1,-2.217425E-1,4.2960316E-1,1.2149151E-1,7.6049304E-1,-5.083815E-1,7.03593E-2,-8.4401175E-2,5.22682E-1,-5.6031585E-1,8.485173E-2,7.13588E-2,-5.0265723E-1,-6.652942E-1,1.3836703E-1,7.3426836E-3,2.5591928E-1,-1.6368651E-1,1.0381646E-1,-4.578673E-1,2.1036379E-1,1.8703231E-1,1.1202797E-2,-7.1379565E-2,1.3712181E-1,1.7286861E-2,3.0580413E-1,-2.0983884E-1,9.344962E-3,2.9589362E-2,2.018051E-1,-1.9829564E-2,-2.3938869E-1,6.397354E-2,-1.5049012E-1,2.4874218E-2,-2.0681854E-1,-2.3083632E-1,-5.6978628E-2,1.4602306E-1,-8.464399E-2,-1.8793401E-1,3.2447858E-3,1.6251607E-1,-1.1655542E-1],"categories":[],"categories_nodes":[],"categories_segments":[],"categories_sizes":[],"default_left":[0,0,0,0,0,0,0,0,0,0,0,0,0,0,0,0,0,0,0,0,0,0,0,0,0,0,0,0,0,0,0,0,0,0,0,0,0,0,0,0,0,0,0,0,0,0,0,0,0,0,0,0,0,0,0,0,0,0,0,0,0,0,0,0,0,0,0,0,0,0,0],"id":20,"left_children":[1,3,5,7,9,11,13,15,17,19,21,-1,23,25,27,29,31,33,35,37,39,41,43,-1,-1,-1,-1,45,47,49,51,53,-1,-1,55,57,-1,59,61,63,65,-1,-1,-1,-1,67,69,-1,-1,-1,-1,-1,-1,-1,-1,-1,-1,-1,-1,-1,-1,-1,-1,-1,-1,-1,-1,-1,-1,-1,-1],"loss_changes":[1.3514131E0,9.556377E-1,1.0440037E0,1.3818184E0,1.1128411E0,2.5435305E-1,8.354033E-1,1.6743429E0,1.3579311E0,1.3556832E0,7.3698807E-1,0E0,4.0838003E-2,1.1780663E0,1.0089588E0,1.4775028E0,7.507298E-1,8.7861854E-1,9.9570715E-1,1.289774E0,1.258846E0,4.6286154E-1,8.049358E-1,0E0,0E0,0E0,0E0,1.1133614E0,2.1565068E-1,1.4595091E0,1.0425043E0,4.436735E-1,0E0,0E0,1.5822762E-1,8.624742E-1,0E0,1.3581829E0,6.3476133E-1,3.4358358E-1,5.8368886E-1,0E0,0E0,0E0,0E0,5.4092634E-1,1.0454102E0,0E0,0E0,0E0,0E0,0E0,0E0,0E0,0E0,0E0,0E0,0E0,0E0,0E0,0E0,0E0,0E0,0E0,0E0,0E0,0E0,0E0,0E0,0E0,0E0],"parents":[2147483647,0,0,1,1,2,2,3,3,4,4,5,5,6,6,7,7,8,8,9,9,10,10,12,12,13,13,14,14,15,15,16,16,17,17,18,18,19,19,20,20,21,21,22,22,27,27,28,28,29,29,30,30,31,31,34,34,35,35,37,37,38,38,39,39,40,40,45,45,46,46],"right_children":[2,4,6,8,10,12,14,16,18,20,22,-1,24,26,28,30,32,34,36,38,40,42,44,-1,-1,-1,-1,46,48,50,52,54,-1,-1,56,58,-1,60,62,64,66,-1,-1,-1,-1,68,70,-1,-1,-1,-1,-1,-1,-1,-1,-1,-1,-1,-1,-1,-1,-1,-1,-1,-1,-1,-1,-1,-1,-1,-1],"split_conditions":[-4.951433E-1,-1.263745E-1,-3.261373E-1,4.8233017E-1,1.3627071E0,-9.278496E-1,-6.9438255E-1,7.5078917E-1,-4.8967594E-1,1.8164723E-1,-5.841563E-1,2.6811795E-2,-1.6224845E-1,-1.9298325E-1,1.1037325E0,9.672525E-1,-3.74358E-1,-4.4939312E-1,1.1951689E0,8.2101876E-1,1.1536468E0,5.3761435E-1,9.724869E-2,7.073145E-2,2.4097402E-1,-5.809362E-2,2.1845923E-1,4.6731195E-1,-1.5143734E-1,-9.925628E-1,-1.3235115E-1,6.6695094E-1,7.03593E-2,-8.4401175E-2,-1.1423314E0,-1.5566131E-1,8.485173E-2,1.0161378E0,-8.774537E-1,6.0024315E-1,-8.333827E-1,7.3426836E-3,2.5591928E-1,-1.6368651E-1,1.0381646E-1,9.698572E-1,4.3448818E-1,1.8703231E-1,1.1202797E-2,-7.1379565E-2,1.3712181E-1,1.7286861E-2,3.0580413E-1,-2.0983884E-1,9.344962E-3,2.9589362E-2,2.018051E-1,-1.9829564E-2,-2.3938869E-1,6.397354E-2,-1.5049012E-1,2.4874218E-2,-2.0681854E-1,-2.3083632E-1,-5.6978628E-2,1.4602306E-1,-8.464399E-2,-1.8793401E-1,3.2447858E-3,1.6251607E-1,-1.1655542E-1],"split_indices":[23,22,22,6,21,19,17,21,17,7,3,0,20,16,15,20,10,5,3,15,17,18,6,0,0,0,0,8,21,1,17,19,0,0,17,18,0,8,19,3,0,0,0,0,0,22,25,0,0,0,0,0,0,0,0,0,0,0,0,0,0,0,0,0,0,0,0,0,0,0,0],"split_type":[0,0,0,0,0,0,0,0,0,0,0,0,0,0,0,0,0,0,0,0,0,0,0,0,0,0,0,0,0,0,0,0,0,0,0,0,0,0,0,0,0,0,0,0,0,0,0,0,0,0,0,0,0,0,0,0,0,0,0,0,0,0,0,0,0,0,0,0,0,0,0],"sum_hessian":[8.559871E1,6.532635E1,2.0272366E1,3.1462624E1,3.3863724E1,4.803114E0,1.5469252E1,1.9669653E1,1.179297E1,2.9609783E1,4.2539387E0,1.2066444E0,3.5964696E0,4.3588824E0,1.1110369E1,1.5251594E1,4.418059E0,3.937388E0,7.8555818E0,1.867231E1,1.0937473E1,2.1254334E0,2.1285055E0,1.3009707E0,2.295499E0,1.6696014E0,2.6892812E0,8.967977E0,2.142392E0,1.0198847E1,5.0527477E0,3.0922248E0,1.3258339E0,1.4067934E0,2.5305946E0,6.7924776E0,1.0631045E0,1.4390101E1,4.2822084E0,8.890615E0,2.0468576E0,1.1024157E0,1.0230176E0,1.1026027E0,1.0259027E0,5.7605195E0,3.2074573E0,1.0394077E0,1.1029842E0,5.0649886E0,5.133858E0,1.6890508E0,3.3636968E0,2.0645974E0,1.0276276E0,1.0943707E0,1.4362239E0,2.6206417E0,4.171836E0,1.2037239E1,2.3528616E0,1.169835E0,3.1123736E0,6.7852087E0,2.105407E0,1.0333098E0,1.0135479E0,3.9890864E0,1.771433E0,2.1263902E0,1.0810672E0],"tree_param":{"num_deleted":"0","num_feature":"31","num_nodes":"71","size_leaf_vector":"1"}},{"base_weights":[5.8805193E-3,-4.6266086E-2,2.543466E-1,-4.941715E-1,-1.4723106E-2,5.2479523E-1,5.294463E-2,-2.1920647E-2,-1.8477023E-1,-4.1335586E-1,2.1838836E-2,9.7404845E-2,2.1293287E-1,3.5816187E-1,-1.4759816E-1,-6.129386E-1,3.483785E-2,1.2197721E-1,-1.131004E-1,-6.583748E-2,1.09747596E-1,1.59293E-1,-1.3597601E-2,-4.0597743E-1,1.9836262E-1,-3.5403527E-2,-2.2535683E-1,2.5142383E-2,3.030058E-1,3.248567E-1,-2.1144879E-1,-1.6993499E-1,2.612273E-3,-2.1258852E-2,1.1294939E-1,-1.8287295E-1,2.4677949E-2,1.5801266E-1,-2.6653187E-2,-3.306533E-2,-1.6848661E-1],"categories":[],"categories_nodes":[],"categories_segments":[],"categories_sizes":[],"default_left":[0,0,0,0,0,0,0,0,0,0,0,0,0,0,0,0,0,0,0,0,0,0,0,0,0,0,0,0,0,0,0,0,0,0,0,0,0,0,0,0,0],"id":21,"left_children":[1,3,5,7,9,11,13,-1,-1,15,17,19,-1,21,23,25,-1,27,29,-1,-1,-1,-1,31,33,-1,-1,35,-1,37,39,-1,-1,-1,-1,-1,-1,-1,-1,-1,-1],"loss_changes":[1.0873718E0,9.7408944E-1,7.6497805E-1,1.8767595E-1,9.6982574E-1,4.1313434E-1,6.3155353E-1,0E0,0E0,6.617425E-1,8.4257025E-1,3.355893E-1,0E0,3.0581415E-1,6.538429E-1,1.9995666E-1,0E0,3.043518E0,1.2163851E0,0E0,0E0,0E0,0E0,2.7110153E-1,1.9040392E-1,0E0,0E0,1.2539202E0,0E0,4.8775822E-1,7.3090714E-1,0E0,0E0,0E0,0E0,0E0,0E0,0E0,0E0,0E0,0E0],"parents":[2147483647,0,0,1,1,2,2,3,3,4,4,5,5,6,6,9,9,10,10,11,11,13,13,14,14,15,15,17,17,18,18,23,23,24,24,27,27,29,29,30,30],"right_children":[2,4,6,8,10,12,14,-1,-1,16,18,20,-1,22,24,26,-1,28,30,-1,-1,-1,-1,32,34,-1,-1,36,-1,38,40,-1,-1,-1,-1,-1,-1,-1,-1,-1,-1],"split_conditions":[-3.9783114E-1,-1.4695954E0,-1.2625852E-3,-7.2239727E-1,-1.4621928E0,-7.075766E-1,-1.702009E-1,-2.1920647E-2,-1.8477023E-1,4.9886778E-1,9.8751396E-1,-3.212794E-1,2.1293287E-1,4.008556E-1,-9.673772E-2,-4.017687E-1,3.483785E-2,-9.925628E-1,-1.1927999E0,-6.583748E-2,1.09747596E-1,1.59293E-1,-1.3597601E-2,6.8897736E-1,-3.0259657E-1,-3.5403527E-2,-2.2535683E-1,-1.5396277E0,3.030058E-1,3.3122677E-1,9.392518E-1,-1.6993499E-1,2.612273E-3,-2.1258852E-2,1.1294939E-1,-1.8287295E-1,2.4677949E-2,1.5801266E-1,-2.6653187E-2,-3.306533E-2,-1.6848661E-1],"split_indices":[24,16,22,7,21,16,25,0,0,7,1,15,0,20,6,20,0,1,25,0,0,0,0,5,2,0,0,8,0,22,16,0,0,0,0,0,0,0,0,0,0],"split_type":[0,0,0,0,0,0,0,0,0,0,0,0,0,0,0,0,0,0,0,0,0,0,0,0,0,0,0,0,0,0,0,0,0,0,0,0,0,0,0,0,0],"sum_hessian":[8.2015526E1,6.8461105E1,1.3554421E1,3.5391476E0,6.492196E1,5.1001186E0,8.454303E0,1.1525036E0,2.3866441E0,4.5884724E0,6.0333485E1,2.001744E0,3.0983746E0,3.0406325E0,5.4136705E0,3.2178998E0,1.3705728E0,3.4687763E1,2.5645721E1,1.0016875E0,1.0000565E0,1.9076227E0,1.1330098E0,2.9998028E0,2.4138675E0,1.1073351E0,2.1105647E0,3.2204407E1,2.483355E0,4.2805953E0,2.1365126E1,1.8989724E0,1.1008304E0,1.2009716E0,1.212896E0,1.8602296E0,3.0344177E1,2.693314E0,1.5872813E0,1.7593733E1,3.7713919E0],